{
  "version": "synthetic-gridsearch-v3",
  "activation": "tanh",
  "featureNames": [
    "length_norm",
    "bulky_ratio",
    "difficult_ratio",
    "hydrophobic_ratio",
    "charged_ratio",
    "breaker_ratio",
    "sulfur_ratio",
    "aspartimide_risk",
    "reagent_score",
    "topology_complexity",
    "temperature_score",
    "solvent_score",
    "cleavage_score",
    "sequence_complexity",
    "longest_hydrophobic_run",
    "cys_cyclization_fit"
  ],
  "hiddenSize": 8,
  "inputNormalization": {
    "mean": [
      0.42388888888888876,
      0.41176387131387104,
      0.2530625282125283,
      0.4722986050986054,
      0.20655775150775174,
      0.10787244607244617,
      0.12997737632737655,
      0.08282420357420371,
      0.841493333333333,
      0.3775866666666671,
      0.5466000000000037,
      0.722986666666674,
      0.7562133333333407,
      0.7652021663521671,
      0.30894061124061134,
      0.081
    ],
    "std": [
      0.23160803947751296,
      0.23264327891743572,
      0.18460375643188653,
      0.24335193638012298,
      0.16560509200686807,
      0.12304589851415756,
      0.12377101824359016,
      0.10483410411283552,
      0.17292436676831321,
      0.35798348540431796,
      0.29063798788183137,
      0.13331721502575025,
      0.20254528996964696,
      0.1258691215444969,
      0.21015433527223948,
      0.1880310258086865
    ]
  },
  "targetNormalization": {
    "mean": [
      90.1622064990347,
      79.04108458867077
    ],
    "std": [
      7.505202988226978,
      9.829373838792785
    ]
  },
  "weights": {
    "W1": [
      [
        0.08235536647794084,
        -0.25293018229738495,
        0.4373232068262865,
        -0.0712073565639374,
        0.1326859223427752,
        -0.0822494071899627,
        0.05062693041977888,
        -0.11983421501824174,
        0.1960766425135405,
        0.6772281058181985,
        0.23313354335876035,
        -0.08171504794756437,
        -0.14280882021726513,
        -0.25683768780930544,
        0.2355257765030637,
        0.07695525669810273
      ],
      [
        0.23577533157095681,
        -0.017497424795660785,
        0.04467841094787966,
        0.1949003558132082,
        0.1399684032590194,
        0.1746515630118836,
        -0.08036889417081527,
        -0.38642367916274756,
        -0.10382298442790429,
        0.025111365780619246,
        0.05790550149835694,
        0.21860242499546645,
        -0.22884049673267473,
        0.1448619893897759,
        0.3832481920163376,
        0.050099449847693475
      ],
      [
        0.1881389464746634,
        -0.06164468615278099,
        -0.1383495746842126,
        0.22714392595642333,
        -0.02894598098195684,
        -0.40229176573176545,
        -0.2965924075438613,
        0.01978885106506344,
        0.1365289288178615,
        0.016574556933287684,
        0.23489120270626446,
        -0.22367250632978686,
        -0.17012592273140464,
        -0.031189927176410823,
        0.1925319784071981,
        -0.2760322568417006
      ],
      [
        -0.5024479113414688,
        -0.08800575174862905,
        0.32360159471384337,
        -0.049889192101052734,
        -0.14225340178016171,
        -0.2931066471030272,
        0.3791716846534316,
        0.24642777801081195,
        -0.032904606905633856,
        0.3304181114936824,
        -0.05101985037543897,
        -0.24206818920592058,
        -0.22711705882602523,
        -0.036187076781489885,
        0.10441161423905486,
        -0.12008781248401221
      ],
      [
        -0.14054030247788568,
        0.2531568783279888,
        0.042754592368107025,
        -0.5486922000417254,
        -0.13151188000816852,
        -0.09575757665301915,
        0.4497611450857051,
        0.38953457986834233,
        -0.07029925250176806,
        0.29985672691091725,
        -0.3539713597942348,
        -0.21601986443434656,
        0.18339597226682797,
        -0.13345073998272702,
        -0.07120521324857129,
        0.09701581555270056
      ],
      [
        -0.510360958677541,
        -0.6688109810831802,
        0.04441308858252932,
        0.10707569961605341,
        0.25133573883252586,
        0.2152055057236205,
        -0.129497140612946,
        -0.5311810713246929,
        -0.004520281413595953,
        0.26555392449644283,
        0.20725820996221922,
        0.04298220818675393,
        -0.10895463391301101,
        -0.14217398488087224,
        0.10703245248159261,
        0.16824768027432402
      ],
      [
        -0.5527757635471375,
        -0.020552879157101328,
        -0.3254124987254791,
        -0.18153370195855814,
        -0.011081164518663611,
        0.01202113484695498,
        -0.11798845632985423,
        -0.07038464973124779,
        0.32749323770300376,
        -0.4451062448056448,
        0.05150330499561722,
        0.06028266504894797,
        0.16324071134366222,
        -0.09142230792794202,
        -0.2131607823209679,
        0.07967700693230503
      ],
      [
        -0.07242684192669967,
        -0.19520926466450905,
        -0.25339069365291683,
        -0.06937447409972951,
        -0.19041417008789274,
        0.030537638089557333,
        0.03726715786058156,
        0.009569939509489912,
        0.44201889770126296,
        -0.2894930091691267,
        0.016364180159216448,
        0.3197362146496214,
        -0.04780379287609122,
        0.409646669185006,
        -0.1594106153471653,
        0.24060668875084715
      ]
    ],
    "b1": [
      0.0886505726215625,
      0.09831277717883811,
      0.016647603749590047,
      0.025673346334316203,
      0.08616666385437607,
      0.025806011992103445,
      0.24455916984091186,
      0.21188697973714807
    ],
    "W2": [
      [
        -0.048688766665693335,
        -0.20571990181394478,
        0.020022169813504215,
        -0.1259336290595309,
        0.027826823278231605,
        0.33095817797851035,
        0.8797419844068581,
        0.6606702459074169
      ],
      [
        -0.4904696376079531,
        -0.28948005162400914,
        -0.22985939047139067,
        0.21320115895479388,
        -0.38786433778849144,
        0.22332392675551774,
        0.8857479589005376,
        0.31796227988164316
      ]
    ],
    "b2": [
      -0.21157139949147102,
      -0.13849742154277947
    ]
  },
  "training": {
    "datasetSeed": 20260301,
    "splitSeed": 20260302,
    "scenarioCounts": {
      "easy_linear": 180,
      "hydrophobic_long": 180,
      "steric_rich": 180,
      "charged_difficult": 180,
      "cysteine_rich": 180,
      "cyclized": 180
    },
    "splitSizes": {
      "train": 750,
      "validation": 162,
      "test": 168
    },
    "bestConfig": {
      "hiddenSize": 8,
      "learningRate": 0.12,
      "l2": 0.0015,
      "loss": "huber",
      "huberDelta": 1.0,
      "maxEpochs": 420,
      "patience": 55,
      "bestEpoch": 420
    },
    "parallelJobs": 5,
    "validation": {
      "purity": {
        "mae": 2.8395886403263586,
        "rmse": 3.5252674676970313,
        "r2": 0.7664287995392265
      },
      "yield": {
        "mae": 3.548334745912365,
        "rmse": 4.551420759131167,
        "r2": 0.7770092092314911
      },
      "combinedMae": 3.1939616931193617,
      "combinedRmse": 4.038344113414099
    },
    "test": {
      "purity": {
        "mae": 2.7649115993413687,
        "rmse": 3.571788173114253,
        "r2": 0.7490289385862225
      },
      "yield": {
        "mae": 3.5798560272018007,
        "rmse": 4.6491812872687905,
        "r2": 0.7488444166485425
      },
      "combinedMae": 3.1723838132715847,
      "combinedRmse": 4.110484730191522
    }
  }
}
