{
  "version": "real-fastflow-multitask-v1",
  "source": {
    "name": "learningmatter-mit/peptimizer",
    "url": "https://raw.githubusercontent.com/learningmatter-mit/peptimizer/master/dataset/data_synthesis/synthesis_data.csv"
  },
  "targets": [
    "first_area",
    "first_height",
    "first_width",
    "first_diff"
  ],
  "numericFeatures": [
    "coupling_strokes",
    "deprotection_strokes",
    "flow_rate",
    "temp_coupling",
    "temp_reactor_1",
    "sequence_length"
  ],
  "categoricalFeatures": [
    "coupling_agent"
  ],
  "tokenAlphabet": [
    "<pad>",
    "A",
    "C",
    "D",
    "E",
    "F",
    "G",
    "H",
    "I",
    "K",
    "L",
    "M",
    "N",
    "P",
    "Q",
    "R",
    "S",
    "T",
    "V",
    "W",
    "Y"
  ],
  "splitStrategy": "grouped-by-serial",
  "splitSizes": {
    "train": 8907,
    "validation": 1791,
    "test": 1902
  },
  "serialSplitSizes": {
    "train": 538,
    "validation": 115,
    "test": 116
  },
  "datasetStats": {
    "rows": 12600,
    "uniqueSerials": 769,
    "maxPreChainLength": 49,
    "meanPreChainLength": 11.884761904761906
  },
  "huberDeltaSearch": {
    "candidateDeltas": [
      1.0
    ],
    "candidateCount": 4
  },
  "normalization": {
    "numericMean": [
      7.557538986206055,
      13.001459121704102,
      74346.0234375,
      51.385223388671875,
      84.7341079711914,
      11.989446640014648
    ],
    "numericStd": [
      1.9232277870178223,
      0.13773784041404724,
      13935.2685546875,
      30.362321853637695,
      17.16181755065918,
      8.971863746643066
    ],
    "targetMean": [
      0.8446053862571716,
      0.8668365478515625,
      0.988182544708252,
      -0.12134600430727005
    ],
    "targetStd": [
      0.18518447875976562,
      0.2176685631275177,
      0.11667510122060776,
      0.2966344952583313
    ]
  },
  "runtime": {
    "device_type": "cpu",
    "device_name": "cpu",
    "selection_reason": "auto-selected optimized CPU on macOS",
    "cpu_threads": 9,
    "interop_threads": 4,
    "num_workers": 5,
    "pin_memory": false,
    "persistent_workers": true,
    "prefetch_factor": 2,
    "non_blocking": false,
    "use_amp": false,
    "amp_dtype": null,
    "compile_model": false,
    "compile_mode": null
  },
  "bestConfig": {
    "name": "gru_residual_small_delta_1_0",
    "architecture": "gru",
    "max_length": 40,
    "embed_dim": 16,
    "sequence_hidden": 32,
    "numeric_hidden": 32,
    "trunk_hidden": 96,
    "dropout": 0.12,
    "learning_rate": 0.001,
    "weight_decay": 0.0001,
    "batch_size": 256,
    "max_epochs": 30,
    "patience": 5,
    "huber_delta": 1.0
  },
  "bestLoss": {
    "name": "HuberLoss",
    "delta": 1.0
  },
  "bestEpoch": 9,
  "validation": {
    "first_area": {
      "mae": 0.11410196870565414,
      "rmse": 0.1811366081237793,
      "r2": 0.306514940583945
    },
    "first_height": {
      "mae": 0.12285422533750534,
      "rmse": 0.1906786859035492,
      "r2": 0.40444933779000225
    },
    "first_width": {
      "mae": 0.06449312716722488,
      "rmse": 0.09123382717370987,
      "r2": 0.3750745089723795
    },
    "first_diff": {
      "mae": 0.1567491739988327,
      "rmse": 0.2248212844133377,
      "r2": 0.4878775741336685
    },
    "combinedMae": 0.11454962380230427,
    "combinedRmse": 0.17196760140359402
  },
  "test": {
    "first_area": {
      "mae": 0.09516812115907669,
      "rmse": 0.14816410839557648,
      "r2": -0.0777337339876294
    },
    "first_height": {
      "mae": 0.1064712330698967,
      "rmse": 0.17143948376178741,
      "r2": -0.11487449221400503
    },
    "first_width": {
      "mae": 0.06386735290288925,
      "rmse": 0.0925774797797203,
      "r2": 0.1737213864259728
    },
    "first_diff": {
      "mae": 0.15306636691093445,
      "rmse": 0.23841388523578644,
      "r2": -0.02990489270066843
    },
    "combinedMae": 0.10464326851069927,
    "combinedRmse": 0.16264873929321766
  },
  "candidateResults": [
    {
      "name": "gru_residual_small_delta_1_0",
      "architecture": "gru",
      "huberDelta": 1.0,
      "bestEpoch": 9,
      "validationCombinedRmse": 0.17196760140359402,
      "testCombinedRmse": 0.16264873929321766
    },
    {
      "name": "rnn_attention_residual_medium_delta_1_0",
      "architecture": "rnn_attention",
      "huberDelta": 1.0,
      "bestEpoch": 18,
      "validationCombinedRmse": 0.17290856689214706,
      "testCombinedRmse": 0.1626317109912634
    },
    {
      "name": "hybrid_residual_medium_delta_1_0",
      "architecture": "hybrid",
      "huberDelta": 1.0,
      "bestEpoch": 4,
      "validationCombinedRmse": 0.18153296038508415,
      "testCombinedRmse": 0.15074212849140167
    },
    {
      "name": "cnn_residual_medium_delta_1_0",
      "architecture": "cnn",
      "huberDelta": 1.0,
      "bestEpoch": 3,
      "validationCombinedRmse": 0.18443830125033855,
      "testCombinedRmse": 0.1405319608747959
    }
  ],
  "stateDict": {
    "sequence_encoder.embedding.weight": [
      [
        0.0,
        0.0,
        0.0,
        0.0,
        0.0,
        0.0,
        0.0,
        0.0,
        0.0,
        0.0,
        0.0,
        0.0,
        0.0,
        0.0,
        0.0,
        0.0
      ],
      [
        -0.7100028395652771,
        1.6079972982406616,
        -0.010328498668968678,
        -1.0496940612792969,
        -1.9254997968673706,
        0.8756103515625,
        -1.319688320159912,
        0.19532115757465363,
        0.8289204239845276,
        0.640930712223053,
        0.3557306230068207,
        -0.06549561023712158,
        0.7226330637931824,
        0.023036465048789978,
        1.3013490438461304,
        0.3018206059932709
      ],
      [
        -0.9562659859657288,
        -0.2888018488883972,
        -0.8297561407089233,
        -1.596805453300476,
        0.10983560234308243,
        0.1882794350385666,
        2.7607076168060303,
        -0.053051598370075226,
        0.8921154141426086,
        -1.381388783454895,
        -2.0324387550354004,
        -0.6276135444641113,
        2.0636374950408936,
        -0.7998227477073669,
        -0.7475324869155884,
        -0.2648484706878662
      ],
      [
        -1.7736705541610718,
        1.3344180583953857,
        0.04646981507539749,
        1.5609421730041504,
        -1.4310139417648315,
        0.03307729214429855,
        -0.7018609046936035,
        -0.03968803584575653,
        1.477257490158081,
        -0.8767873048782349,
        -0.6856544017791748,
        -0.7886147499084473,
        0.039802435785532,
        0.36960649490356445,
        1.2203929424285889,
        -1.8386435508728027
      ],
      [
        -1.1529037952423096,
        0.35155627131462097,
        0.8064846992492676,
        0.24169498682022095,
        0.3260829746723175,
        0.3628471791744232,
        1.5525848865509033,
        0.3892570734024048,
        0.38705727458000183,
        -0.1745910495519638,
        -0.0885886549949646,
        0.11905812472105026,
        -0.1934116780757904,
        -0.06213385611772537,
        0.7929390072822571,
        -1.0224976539611816
      ],
      [
        -0.9894862771034241,
        0.5761339664459229,
        -0.4992464780807495,
        1.5947456359863281,
        -1.3446080684661865,
        -0.2827952206134796,
        0.7594800591468811,
        0.7522239685058594,
        -1.4459619522094727,
        0.09917440265417099,
        -1.3099277019500732,
        -0.11453285068273544,
        1.8133844137191772,
        -0.5429453253746033,
        0.4768974781036377,
        -1.9675906896591187
      ],
      [
        -1.2368370294570923,
        0.058121807873249054,
        -0.7497769594192505,
        -0.30691832304000854,
        -0.6655898094177246,
        -1.042115330696106,
        0.3550965189933777,
        1.4367139339447021,
        0.7547258734703064,
        1.3880374431610107,
        0.48166701197624207,
        1.4600919485092163,
        -1.4013073444366455,
        1.200329065322876,
        0.9310688376426697,
        0.05547488108277321
      ],
      [
        0.854465901851654,
        -1.4072719812393188,
        -0.8873093724250793,
        -0.17542871832847595,
        -1.6506516933441162,
        0.716579020023346,
        -1.2626523971557617,
        0.025264350697398186,
        1.4095650911331177,
        -0.2734173834323883,
        -1.5003011226654053,
        -0.7194072008132935,
        1.2567722797393799,
        -0.034443870186805725,
        0.7342637777328491,
        0.1192508265376091
      ],
      [
        -0.28378069400787354,
        -1.3936117887496948,
        0.1455143392086029,
        -0.2679867446422577,
        0.43157145380973816,
        -2.7439751625061035,
        1.1769472360610962,
        0.7907466292381287,
        -1.4810514450073242,
        -0.2806949317455292,
        -1.6230961084365845,
        0.24341221153736115,
        -0.9393410682678223,
        0.3755720555782318,
        -0.2426142692565918,
        0.35930946469306946
      ],
      [
        -0.7994586825370789,
        0.20691047608852386,
        -0.2494649887084961,
        -0.2698075771331787,
        -0.6270318031311035,
        0.9587522745132446,
        1.3938871622085571,
        0.11512130498886108,
        0.17379021644592285,
        -0.39731064438819885,
        -0.24015013873577118,
        -0.17203150689601898,
        1.00084388256073,
        0.15595969557762146,
        0.037735797464847565,
        -0.7170364260673523
      ],
      [
        0.912052571773529,
        0.1496557742357254,
        -2.2599873542785645,
        0.12336858361959457,
        1.962000846862793,
        0.9256042242050171,
        0.6977101564407349,
        1.6885615587234497,
        -0.8153567314147949,
        -0.3473787009716034,
        0.8107597231864929,
        -0.371775358915329,
        0.6393319368362427,
        0.20106573402881622,
        -0.17467041313648224,
        0.06832955777645111
      ],
      [
        -0.07546022534370422,
        0.6062211990356445,
        -0.1769028604030609,
        -0.7448357939720154,
        0.14427591860294342,
        -0.8684602379798889,
        -0.4400928020477295,
        -0.9689990878105164,
        0.6378633379936218,
        -0.9154638051986694,
        0.15197177231311798,
        -0.5167577862739563,
        -0.14133185148239136,
        1.5421510934829712,
        -0.14118224382400513,
        -0.8752954006195068
      ],
      [
        0.8161966800689697,
        -0.8147047758102417,
        -0.12652620673179626,
        0.015191126614809036,
        1.7086294889450073,
        -0.6934253573417664,
        1.7327344417572021,
        0.21846164762973785,
        0.3083995580673218,
        -1.0724976062774658,
        -0.6797188520431519,
        -0.8662642240524292,
        -0.7306222319602966,
        -0.5415092706680298,
        -0.5438432693481445,
        0.8054007291793823
      ],
      [
        -1.5958781242370605,
        -0.2727711796760559,
        0.8104842901229858,
        -1.4907610416412354,
        0.28183984756469727,
        0.8017846345901489,
        -0.9520784020423889,
        1.1504440307617188,
        -1.0664658546447754,
        -0.7550952434539795,
        1.2450518608093262,
        0.1733492910861969,
        0.7534574270248413,
        1.9095969200134277,
        -0.22928419709205627,
        -0.9339539408683777
      ],
      [
        0.8239312767982483,
        0.45059847831726074,
        1.6376453638076782,
        -0.8923972249031067,
        -0.972873866558075,
        -0.1772904247045517,
        -1.4585448503494263,
        0.9736345410346985,
        0.06757718324661255,
        0.40301844477653503,
        -1.5087782144546509,
        -0.6819854974746704,
        -0.48081228137016296,
        0.014042476192116737,
        0.625083863735199,
        -0.30175647139549255
      ],
      [
        0.933382511138916,
        0.4103327989578247,
        -0.06464555114507675,
        1.6151974201202393,
        1.0591962337493896,
        -1.5449957847595215,
        -0.3960516154766083,
        0.14984944462776184,
        -0.728905200958252,
        -1.069565773010254,
        -0.35292625427246094,
        0.9901526570320129,
        0.07612841576337814,
        -0.058795493096113205,
        0.5493806004524231,
        -1.4959148168563843
      ],
      [
        0.2412988841533661,
        0.5592012405395508,
        -0.050654686987400055,
        0.47288480401039124,
        0.8644174337387085,
        -1.123505711555481,
        -1.0718079805374146,
        -1.037201166152954,
        -1.5012060403823853,
        0.01404106430709362,
        0.3741677403450012,
        0.3934178352355957,
        -0.3330993056297302,
        -1.64948308467865,
        0.27811741828918457,
        0.709653377532959
      ],
      [
        -0.8847414255142212,
        -0.7109211683273315,
        -1.67255437374115,
        -1.2438406944274902,
        0.6301130056381226,
        0.3595915138721466,
        0.5387760400772095,
        1.0563747882843018,
        1.3756946325302124,
        -3.2656807899475098,
        0.729343056678772,
        -1.094853401184082,
        -1.7195883989334106,
        -0.4048605263233185,
        0.5193559527397156,
        1.2401982545852661
      ],
      [
        0.9932695031166077,
        -0.34260109066963196,
        0.9179471731185913,
        -0.8589832186698914,
        0.44390541315078735,
        -0.8584585785865784,
        1.320266842842102,
        1.3909183740615845,
        0.24534626305103302,
        1.1382986307144165,
        1.2207331657409668,
        -1.1336535215377808,
        0.9025755524635315,
        -0.0009505737107247114,
        0.9974266290664673,
        0.2628093361854553
      ],
      [
        -0.54740971326828,
        0.21034276485443115,
        0.4766385853290558,
        1.5402520895004272,
        0.6703579425811768,
        0.20299410820007324,
        -0.7090561389923096,
        -0.2984921932220459,
        -0.985289990901947,
        1.9865909814834595,
        -0.6536831855773926,
        -0.9960877299308777,
        1.1364752054214478,
        0.9688245058059692,
        -2.036343812942505,
        -0.4894820749759674
      ],
      [
        0.015718378126621246,
        1.158622145652771,
        1.0626736879348755,
        -0.14274008572101593,
        -1.4162297248840332,
        0.5191630125045776,
        -0.08505348861217499,
        0.67532879114151,
        2.614410400390625,
        1.050138235092163,
        0.24906468391418457,
        -0.09929289668798447,
        0.3423367440700531,
        -0.5157028436660767,
        0.8880513906478882,
        -2.1181256771087646
      ]
    ],
    "sequence_encoder.encoder.weight_ih_l0": [
      [
        -0.07199326157569885,
        -0.006385501474142075,
        -0.26552820205688477,
        -0.0546848364174366,
        0.061325665563344955,
        0.11979396641254425,
        0.11629914492368698,
        -0.0945742055773735,
        0.024229681119322777,
        0.04334757849574089,
        -0.061291299760341644,
        -0.042328380048274994,
        0.19215530157089233,
        -0.11629465967416763,
        0.173509418964386,
        -0.16691604256629944
      ],
      [
        0.1120067611336708,
        -0.07300606369972229,
        -0.10782264918088913,
        -0.0675232857465744,
        0.09789956361055374,
        -0.24200356006622314,
        -0.11018069088459015,
        0.08705659955739975,
        -0.0832001268863678,
        -0.035095974802970886,
        -0.00578673230484128,
        0.1362210065126419,
        0.009396089240908623,
        -0.15710441768169403,
        0.11235307157039642,
        0.14581827819347382
      ],
      [
        -0.04397057741880417,
        0.17271602153778076,
        0.11980285495519638,
        0.16228419542312622,
        0.17927949130535126,
        -0.11486347019672394,
        -0.08990764617919922,
        -0.0012692023301497102,
        -0.1432991921901703,
        0.11788197606801987,
        -0.11892430484294891,
        0.018622633069753647,
        -0.1388205736875534,
        -0.12435414642095566,
        0.15077713131904602,
        -0.21525108814239502
      ],
      [
        0.19928696751594543,
        -0.007348921149969101,
        -0.0944129228591919,
        -0.19851727783679962,
        0.054005350917577744,
        0.10713289678096771,
        -0.1607142835855484,
        0.20606529712677002,
        -0.20137012004852295,
        0.20107503235340118,
        -0.04289880767464638,
        -0.05119853466749191,
        0.21163909137248993,
        0.050880976021289825,
        -0.010537397116422653,
        0.23530271649360657
      ],
      [
        0.19420599937438965,
        0.0654650405049324,
        0.24651038646697998,
        -0.08501040190458298,
        0.1167793720960617,
        -0.0273677296936512,
        0.07795733213424683,
        0.07327741384506226,
        0.20879009366035461,
        0.1494801789522171,
        0.06656718999147415,
        -0.08854445815086365,
        0.13159358501434326,
        -0.24704067409038544,
        -0.04803125932812691,
        -0.08359894156455994
      ],
      [
        0.26077690720558167,
        0.05772204324603081,
        0.050440091639757156,
        -0.36489951610565186,
        -0.19913607835769653,
        0.028045138344168663,
        -0.010379316285252571,
        0.08656994253396988,
        0.08943944424390793,
        0.37243330478668213,
        0.2086748629808426,
        0.2768385112285614,
        0.128737211227417,
        -0.10611644387245178,
        0.04247118905186653,
        0.2249440997838974
      ],
      [
        0.1609826236963272,
        0.15578734874725342,
        0.0496876984834671,
        -0.01651904731988907,
        0.15017996728420258,
        -0.004136196803301573,
        0.09191849082708359,
        0.11303622275590897,
        -0.22027654945850372,
        -0.16260813176631927,
        0.050618886947631836,
        -0.03187957778573036,
        0.04472540318965912,
        -0.1465579867362976,
        0.1312536746263504,
        0.04330991581082344
      ],
      [
        0.05930531769990921,
        -0.06509830802679062,
        -0.0948733538389206,
        -0.10650664567947388,
        -0.22223934531211853,
        -0.24169492721557617,
        -0.126627117395401,
        0.012894446961581707,
        -0.019852520897984505,
        0.01647600345313549,
        -0.11184965074062347,
        0.10224105417728424,
        0.1410774290561676,
        0.12093047797679901,
        0.18295671045780182,
        0.038521796464920044
      ],
      [
        -0.177962988615036,
        0.23411934077739716,
        -0.0726034864783287,
        0.24226164817810059,
        0.09693728387355804,
        -0.061968471854925156,
        0.06478973478078842,
        0.12957556545734406,
        0.031992144882678986,
        -0.0911734476685524,
        -0.15820026397705078,
        0.23630721867084503,
        -0.08602941781282425,
        -0.04278114438056946,
        0.09266091883182526,
        0.01594010554254055
      ],
      [
        -0.19072356820106506,
        -0.25405287742614746,
        -0.09577655047178268,
        0.24335800111293793,
        -0.051524266600608826,
        0.02393866330385208,
        0.19804100692272186,
        -0.1446911096572876,
        0.14609332382678986,
        0.006961343344300985,
        -0.255644828081131,
        0.05741269141435623,
        0.2483590990304947,
        -0.08238919824361801,
        -0.02800811268389225,
        -0.13101273775100708
      ],
      [
        0.2425554096698761,
        0.08260535448789597,
        -0.12224653363227844,
        0.15300777554512024,
        -0.009715292602777481,
        -0.1288643628358841,
        -0.1703551560640335,
        -0.0162313561886549,
        0.147699773311615,
        0.014915288425981998,
        0.06488649547100067,
        0.07382266223430634,
        0.3063974976539612,
        0.00966410618275404,
        -0.18437039852142334,
        -0.16398173570632935
      ],
      [
        -0.01743611879646778,
        0.014144103042781353,
        0.007460464257746935,
        0.1399579793214798,
        -0.028316913172602654,
        0.10006680339574814,
        -0.16757012903690338,
        0.16489091515541077,
        0.0211576446890831,
        -0.08172833919525146,
        -0.26207539439201355,
        0.0641825720667839,
        0.19109894335269928,
        -0.14585503935813904,
        -0.002592052798718214,
        -0.35872504115104675
      ],
      [
        0.06527216732501984,
        -0.218967467546463,
        -0.01811590977013111,
        -0.14774467051029205,
        -0.16098198294639587,
        -0.057104360312223434,
        0.12119445204734802,
        -0.15190793573856354,
        -0.1224408969283104,
        0.3015011250972748,
        -0.16677801311016083,
        -0.15660063922405243,
        0.25851455330848694,
        -0.14083288609981537,
        0.12266667187213898,
        0.1643475741147995
      ],
      [
        -0.007472650613635778,
        0.18309137225151062,
        0.027143463492393494,
        -0.0889677032828331,
        0.0939428061246872,
        -0.0703907236456871,
        -0.17552146315574646,
        0.14351773262023926,
        -0.14921924471855164,
        -0.0113515080884099,
        0.004030231386423111,
        -0.16210219264030457,
        -0.010888081043958664,
        -0.09932031482458115,
        0.02846478670835495,
        0.05319764092564583
      ],
      [
        0.03628838434815407,
        -0.033882495015859604,
        -0.17486663162708282,
        0.3961603343486786,
        -0.11865785717964172,
        -0.07089709490537643,
        -0.018594112247228622,
        -0.037732671946287155,
        0.05066017061471939,
        0.09154918789863586,
        -0.19092842936515808,
        0.13755913078784943,
        -0.17460423707962036,
        0.0038339339662343264,
        0.062253501266241074,
        -0.1244797632098198
      ],
      [
        -0.14609768986701965,
        -0.04499003291130066,
        -0.20686522126197815,
        0.054377712309360504,
        0.17435267567634583,
        0.017343658953905106,
        0.009176503866910934,
        -0.19768701493740082,
        -0.1500495970249176,
        0.08175096660852432,
        0.07111675292253494,
        0.21499483287334442,
        0.23483122885227203,
        0.05084697902202606,
        -0.20892877876758575,
        -0.31009212136268616
      ],
      [
        0.004147264175117016,
        -0.029419725760817528,
        -0.02324080467224121,
        -0.16599570214748383,
        0.02334750071167946,
        -0.18675096333026886,
        0.1501811146736145,
        0.15994173288345337,
        -0.23964323103427887,
        -0.053831908851861954,
        0.09622839093208313,
        0.11539459973573685,
        -0.1464909166097641,
        -0.10265187919139862,
        0.15929879248142242,
        -0.10702715814113617
      ],
      [
        0.043792810291051865,
        0.15505065023899078,
        -0.2624971270561218,
        0.016619190573692322,
        0.011397755704820156,
        0.13971835374832153,
        -0.06937436759471893,
        0.17520920932292938,
        -0.012601858004927635,
        0.06188986822962761,
        0.06537076830863953,
        0.08934763818979263,
        0.2108234316110611,
        -0.026819316670298576,
        -0.05704637989401817,
        0.17609167098999023
      ],
      [
        -0.012237261049449444,
        0.0490766279399395,
        0.04459365829825401,
        0.1851767748594284,
        -0.12782399356365204,
        0.04306161776185036,
        -0.06587285548448563,
        0.005016893148422241,
        -0.11852917075157166,
        -0.1235838457942009,
        0.06642989814281464,
        -0.11130907386541367,
        -0.01070142351090908,
        0.0024666062090545893,
        0.09923012554645538,
        -0.0313759371638298
      ],
      [
        -0.02823147363960743,
        0.11905881017446518,
        -0.08333296328783035,
        0.3119984567165375,
        -0.12052686512470245,
        0.1864745318889618,
        -0.0893060490489006,
        -0.06256195902824402,
        -0.21891820430755615,
        -0.012388925068080425,
        0.07178568094968796,
        -0.01618851348757744,
        0.2403591275215149,
        -0.23612456023693085,
        0.21319641172885895,
        -0.29105669260025024
      ],
      [
        -0.07359664142131805,
        -0.029842032119631767,
        -0.017347047105431557,
        0.1526774764060974,
        0.11954479664564133,
        -0.04749066382646561,
        -0.023055611178278923,
        0.1519717276096344,
        0.015316812321543694,
        -0.17606371641159058,
        0.05189168453216553,
        -0.0009225834510289133,
        0.13763538002967834,
        -0.13412216305732727,
        0.19059398770332336,
        -0.22443701326847076
      ],
      [
        0.04108298942446709,
        0.1731444001197815,
        -0.03195285424590111,
        0.014595319516956806,
        0.16219353675842285,
        -0.22540903091430664,
        -0.16275551915168762,
        0.21837860345840454,
        0.03357508033514023,
        -0.04106198251247406,
        0.05238518491387367,
        -0.05585987865924835,
        0.10179591923952103,
        -0.05727637559175491,
        0.10477892309427261,
        0.17542794346809387
      ],
      [
        -0.08297304064035416,
        -0.010342162102460861,
        0.07234551012516022,
        0.08882240206003189,
        -0.06908974051475525,
        -0.1358407437801361,
        0.12880216538906097,
        -0.03158527612686157,
        0.04994761571288109,
        -0.016054268926382065,
        -0.01487013790756464,
        -0.029490863904356956,
        -0.0003549549728631973,
        -0.16850894689559937,
        -0.09519699215888977,
        0.007927445694804192
      ],
      [
        -0.294291615486145,
        0.06995388865470886,
        -0.128942608833313,
        0.17618075013160706,
        0.06385903805494308,
        -0.05789580196142197,
        -0.14045719802379608,
        0.14083215594291687,
        -0.05562102794647217,
        0.04922086372971535,
        0.03399883583188057,
        0.009458936750888824,
        -0.12831145524978638,
        -0.07118628174066544,
        -0.05451967939734459,
        -0.13201439380645752
      ],
      [
        0.025896655395627022,
        0.06622705608606339,
        0.13328662514686584,
        -0.04863482713699341,
        0.009269438683986664,
        -0.05069657787680626,
        0.195675328373909,
        -0.12248245626688004,
        -0.16279831528663635,
        0.15567204356193542,
        -0.09243825823068619,
        -0.19275251030921936,
        0.016010165214538574,
        0.07451377063989639,
        -0.17408126592636108,
        0.04058467596769333
      ],
      [
        -0.2430875599384308,
        0.12187130004167557,
        0.17436665296554565,
        -0.07197751849889755,
        0.0028170463629066944,
        -0.1030973270535469,
        -0.004351121373474598,
        0.018734807148575783,
        0.24797461926937103,
        0.20348523557186127,
        0.24759230017662048,
        0.12087681144475937,
        -0.17943282425403595,
        0.224958136677742,
        0.1785578429698944,
        -0.029123228043317795
      ],
      [
        -0.08357324451208115,
        0.1406666338443756,
        -0.11934804916381836,
        0.048851437866687775,
        -0.24010580778121948,
        -0.14200155436992645,
        -0.13489685952663422,
        0.09931657463312149,
        0.09566636383533478,
        0.2605093717575073,
        -0.033423613756895065,
        0.019526639953255653,
        0.05724469944834709,
        0.03718764707446098,
        -0.02256401628255844,
        -0.16933146119117737
      ],
      [
        0.024801013991236687,
        -0.15186095237731934,
        0.20202454924583435,
        -0.03794868662953377,
        -0.1912132352590561,
        -0.21349437534809113,
        0.04445537179708481,
        -0.007881687954068184,
        0.22318655252456665,
        -0.1027824729681015,
        -0.11604718863964081,
        -0.10913005471229553,
        0.03502975031733513,
        -0.3139352798461914,
        0.1747504025697708,
        -0.10255497694015503
      ],
      [
        -0.007331965025514364,
        -0.024449514225125313,
        -0.18280862271785736,
        0.11593881249427795,
        -0.06218033656477928,
        0.060672201216220856,
        0.017492402344942093,
        0.06151193007826805,
        -0.14193278551101685,
        0.07641264796257019,
        -0.11346355825662613,
        -0.04363654553890228,
        0.19492143392562866,
        0.016661420464515686,
        0.050904225558042526,
        -0.10253695398569107
      ],
      [
        0.07939697802066803,
        -0.044317085295915604,
        0.044287219643592834,
        0.3091508746147156,
        -0.0021089999936521053,
        -0.09382129460573196,
        0.12467040121555328,
        0.08151084929704666,
        -0.29612770676612854,
        -0.08576405048370361,
        -0.24239104986190796,
        0.19947285950183868,
        0.06116617098450661,
        0.1258847713470459,
        -0.1843937188386917,
        -0.020893674343824387
      ],
      [
        -0.20178155601024628,
        0.013535168953239918,
        -0.12507231533527374,
        0.0054220291785895824,
        0.26712965965270996,
        -0.12043622881174088,
        0.11096229404211044,
        -0.02139568142592907,
        0.0655328631401062,
        -0.26132845878601074,
        -0.07317612320184708,
        -0.06464453786611557,
        0.05530779808759689,
        0.013185067102313042,
        -0.09560919553041458,
        -0.19740161299705505
      ],
      [
        0.14780709147453308,
        -0.18384863436222076,
        -0.12835189700126648,
        0.1628619283437729,
        0.1245575100183487,
        -0.10453375428915024,
        -0.09485156834125519,
        -0.0766417384147644,
        -0.22712475061416626,
        -0.24356336891651154,
        0.06790737062692642,
        -0.08244934678077698,
        0.11322466284036636,
        -0.19849562644958496,
        -0.0016044038347899914,
        0.1647898405790329
      ],
      [
        0.10144942998886108,
        -0.08095089346170425,
        0.123153917491436,
        0.08422640711069107,
        -0.1327822506427765,
        -0.042966779321432114,
        -0.1633901745080948,
        0.09215832501649857,
        0.10259764641523361,
        0.10020044445991516,
        -0.19630883634090424,
        -0.07976581901311874,
        -0.034167200326919556,
        -0.10379987210035324,
        -0.2321302592754364,
        0.030971452593803406
      ],
      [
        0.1169014498591423,
        -0.014262272976338863,
        0.0671117976307869,
        -0.13125844299793243,
        0.09391800314188004,
        0.05355053395032883,
        -0.05524882674217224,
        -0.12103889137506485,
        0.04424390196800232,
        -0.01854318007826805,
        0.14023351669311523,
        -0.032382380217313766,
        0.03875250369310379,
        -0.04797617718577385,
        -0.09193388372659683,
        -0.04607021436095238
      ],
      [
        -0.019058750942349434,
        0.16753825545310974,
        0.1488012820482254,
        0.12523308396339417,
        -0.003136824117973447,
        -0.04506216570734978,
        -0.16234982013702393,
        0.02745063416659832,
        -0.03430953621864319,
        -0.13116486370563507,
        -0.07135123759508133,
        0.11630450934171677,
        0.10243906080722809,
        0.031661730259656906,
        -0.16695429384708405,
        -0.14713111519813538
      ],
      [
        0.23415756225585938,
        -0.22083459794521332,
        0.130459263920784,
        -0.02439538761973381,
        0.01870618760585785,
        -0.23751723766326904,
        0.13811135292053223,
        -0.04256993159651756,
        -0.09614632278680801,
        -0.22856314480304718,
        -0.1896861046552658,
        0.002973957685753703,
        0.17814579606056213,
        -0.2694104015827179,
        -0.055378615856170654,
        -0.0798870399594307
      ],
      [
        0.10498640686273575,
        0.14688341319561005,
        -0.15897856652736664,
        0.14414408802986145,
        0.17518916726112366,
        0.00480157695710659,
        0.045660316944122314,
        0.1261509507894516,
        -0.04558568447828293,
        0.13775210082530975,
        -0.13557597994804382,
        0.1137271448969841,
        -0.03556031361222267,
        0.05485619232058525,
        -0.09210535883903503,
        -0.08331147581338882
      ],
      [
        0.07518866658210754,
        -0.19705568253993988,
        0.1689959168434143,
        -0.004442123230546713,
        -0.14108729362487793,
        -0.12558673322200775,
        0.1682114154100418,
        0.14401915669441223,
        0.02455803006887436,
        -0.006995872128754854,
        -0.0616508387029171,
        -0.08960462361574173,
        -0.1725682020187378,
        -0.11511491984128952,
        -0.12569116055965424,
        0.14692845940589905
      ],
      [
        0.029546475037932396,
        0.05120604485273361,
        -0.11512654274702072,
        -0.03518107533454895,
        0.17336957156658173,
        -0.05806032940745354,
        -0.14140495657920837,
        -0.23433400690555573,
        -0.03520001843571663,
        0.15814313292503357,
        0.060929812490940094,
        0.07372022420167923,
        0.046116236597299576,
        -0.040290553122758865,
        -0.16496706008911133,
        0.19077831506729126
      ],
      [
        0.10671979188919067,
        0.11563921719789505,
        0.038994576781988144,
        0.1165960282087326,
        -0.08257952332496643,
        -0.08211969584226608,
        0.07341387122869492,
        0.01067580096423626,
        0.04155297949910164,
        -0.03378954902291298,
        -0.16009029746055603,
        -0.17910751700401306,
        0.17077414691448212,
        0.122099868953228,
        0.05929667130112648,
        -0.0840536504983902
      ],
      [
        0.2714609205722809,
        0.0068604787811636925,
        -0.16560474038124084,
        -0.09342348575592041,
        -0.001970708603039384,
        -0.08557664602994919,
        -0.11455126851797104,
        0.08363603800535202,
        0.022068843245506287,
        -0.15489314496517181,
        0.05824382230639458,
        -0.12604866921901703,
        -0.0062415702268481255,
        -0.18866491317749023,
        -0.10327029228210449,
        0.06208926811814308
      ],
      [
        0.12795390188694,
        0.15216182172298431,
        -0.003067167941480875,
        -0.04368320852518082,
        -0.14240968227386475,
        -0.18969108164310455,
        -0.13322100043296814,
        -0.20360150933265686,
        0.12189725041389465,
        0.06183638423681259,
        0.09675709158182144,
        -0.002529389224946499,
        -0.13698725402355194,
        0.05466156080365181,
        -0.028477946296334267,
        -0.1601516306400299
      ],
      [
        -0.26388227939605713,
        0.24134133756160736,
        0.23483429849147797,
        0.07433977723121643,
        0.07041281461715698,
        0.2895892560482025,
        0.16485394537448883,
        -0.1069759875535965,
        0.18675997853279114,
        -4.263725350028835e-05,
        -0.1851440668106079,
        -0.11206343024969101,
        -0.11887256801128387,
        0.000806371564976871,
        0.11036813259124756,
        -0.16626983880996704
      ],
      [
        -0.21987615525722504,
        0.02564922906458378,
        -0.09816557168960571,
        0.07192275673151016,
        0.08212710171937943,
        -0.09455451369285583,
        -0.028222130611538887,
        0.0641699731349945,
        0.03652641922235489,
        -0.035325974225997925,
        0.09018192440271378,
        0.1988552212715149,
        0.0699169710278511,
        0.10136104375123978,
        -0.0011603260645642877,
        -0.06414200365543365
      ],
      [
        -0.13402749598026276,
        0.17976869642734528,
        -0.012184643186628819,
        -0.07188790291547775,
        0.09047941118478775,
        0.1278766542673111,
        0.07531566172838211,
        -0.16114819049835205,
        0.169325590133667,
        -0.1021726056933403,
        -0.21988815069198608,
        -0.02418401464819908,
        0.14341118931770325,
        -0.06410856544971466,
        0.09167250990867615,
        -0.1860693246126175
      ],
      [
        -0.24121205508708954,
        -0.04317759722471237,
        -0.03632017597556114,
        0.19571524858474731,
        -0.12694092094898224,
        -0.23342567682266235,
        0.11390488594770432,
        -0.01908230595290661,
        0.024074558168649673,
        -0.1907944679260254,
        -0.19477306306362152,
        0.19887365400791168,
        -0.12677595019340515,
        0.06679487228393555,
        0.12009641528129578,
        -0.2817920744419098
      ],
      [
        0.12138378620147705,
        -0.20547930896282196,
        -0.07546263933181763,
        -0.03987954929471016,
        0.24437306821346283,
        -0.2276345193386078,
        0.0035937330685555935,
        0.09162680059671402,
        -0.16887277364730835,
        -0.029033463448286057,
        0.16192466020584106,
        -0.12931300699710846,
        -0.1465965062379837,
        -0.12261220812797546,
        -0.26431772112846375,
        0.15909914672374725
      ],
      [
        0.13677608966827393,
        -0.10028836131095886,
        -0.09432253986597061,
        0.018518885597586632,
        0.15194730460643768,
        0.11506959795951843,
        -0.10930661857128143,
        0.22243355214595795,
        -0.13418325781822205,
        -0.0586153045296669,
        0.10878031700849533,
        0.10585364699363708,
        -0.05914955586194992,
        0.09795704483985901,
        0.11524686962366104,
        0.14124570786952972
      ],
      [
        0.010245023295283318,
        0.1820216327905655,
        0.0753810927271843,
        0.02008167654275894,
        -0.1517014354467392,
        0.01119303610175848,
        -0.1409965455532074,
        -0.16130656003952026,
        -0.047035858035087585,
        0.04914722219109535,
        -0.060286425054073334,
        0.047550100833177567,
        -0.023298276588320732,
        0.08171553909778595,
        0.07959956675767899,
        -0.24935558438301086
      ],
      [
        0.025498148053884506,
        0.11870531737804413,
        0.02872747741639614,
        0.2329774796962738,
        -0.18063321709632874,
        -0.14754284918308258,
        0.023117532953619957,
        0.13507133722305298,
        -0.00859618280082941,
        -0.11497081816196442,
        -0.2751280665397644,
        -0.19595764577388763,
        0.24384881556034088,
        -0.16924531757831573,
        -0.053424540907144547,
        0.07298638671636581
      ],
      [
        0.045046694576740265,
        0.0958455428481102,
        -0.06666843593120575,
        -0.07972289621829987,
        -0.09472497552633286,
        -0.01120102871209383,
        0.027593612670898438,
        0.025689013302326202,
        0.03629833832383156,
        -0.0267854705452919,
        0.1349015086889267,
        0.18685775995254517,
        -0.11063170433044434,
        0.020578371360898018,
        -0.1065506562590599,
        -0.00036958506098017097
      ],
      [
        0.09009790420532227,
        0.04499753564596176,
        -0.23563668131828308,
        0.37426111102104187,
        0.06005750223994255,
        -0.19820931553840637,
        0.1736644059419632,
        0.10363765060901642,
        -0.04552439972758293,
        -0.0027484314050525427,
        -0.121151864528656,
        0.052275121212005615,
        -0.22220171988010406,
        -0.16680417954921722,
        0.12576381862163544,
        -0.20798157155513763
      ],
      [
        -0.1694849282503128,
        0.00991661287844181,
        0.014754477888345718,
        -0.2209845632314682,
        0.10940372943878174,
        -0.15428894758224487,
        0.026757169514894485,
        -0.18933334946632385,
        -0.15378886461257935,
        0.21766863763332367,
        -0.0853230431675911,
        0.04529353976249695,
        -0.01121167466044426,
        0.03641943261027336,
        -0.21277359127998352,
        -0.13286760449409485
      ],
      [
        -0.013457699678838253,
        0.03469211608171463,
        0.14259596168994904,
        0.13748227059841156,
        0.07507641613483429,
        -0.25950440764427185,
        0.08315077424049377,
        0.08097020536661148,
        -0.08873438090085983,
        0.029825566336512566,
        -0.06236940249800682,
        0.11113633215427399,
        0.05454317480325699,
        0.06637969613075256,
        0.25472354888916016,
        -0.04819674417376518
      ],
      [
        0.06037481874227524,
        0.04583859443664551,
        -0.1843058168888092,
        0.02142198197543621,
        0.10579998046159744,
        0.17175522446632385,
        -0.20954230427742004,
        0.10932908952236176,
        0.002020337153226137,
        0.1072535514831543,
        0.09035006910562515,
        0.09407655149698257,
        0.092127226293087,
        0.025708548724651337,
        0.2229703813791275,
        -0.019562579691410065
      ],
      [
        -0.23911646008491516,
        0.17882169783115387,
        0.1943308711051941,
        -0.19169089198112488,
        0.04200466722249985,
        -0.047547582536935806,
        -0.11567503213882446,
        -0.1595410406589508,
        -0.04153663292527199,
        0.002883305773139,
        0.17785046994686127,
        0.12316859513521194,
        -0.13457322120666504,
        0.16012628376483917,
        0.15340036153793335,
        0.07506529986858368
      ],
      [
        -0.11093450337648392,
        -0.04793374240398407,
        -0.13180813193321228,
        -0.007684341631829739,
        -0.0034180087968707085,
        -0.01281136553734541,
        0.05726512894034386,
        0.12275108695030212,
        0.02271692454814911,
        0.12161500006914139,
        -0.02451523207128048,
        -0.015128538012504578,
        0.05791708081960678,
        -0.13950340449810028,
        -0.010683380998671055,
        0.1041378602385521
      ],
      [
        -0.026484359055757523,
        0.08847937732934952,
        0.016328539699316025,
        0.08053882420063019,
        0.09846023470163345,
        -0.20164112746715546,
        0.18737438321113586,
        -0.02845805138349533,
        0.0825040265917778,
        -0.11260712146759033,
        -0.17301280796527863,
        -0.0738939419388771,
        0.06691227853298187,
        -0.09170210361480713,
        0.21930764615535736,
        -0.11148195713758469
      ],
      [
        0.19518889486789703,
        0.0765283927321434,
        -0.027437318116426468,
        0.13098207116127014,
        0.01223363820463419,
        0.129639133810997,
        0.21828965842723846,
        -0.12090730667114258,
        0.03563623130321503,
        -0.20005668699741364,
        0.16340865194797516,
        0.06989344209432602,
        -0.01412329263985157,
        -0.12247387319803238,
        -0.1307772994041443,
        -0.15657661855220795
      ],
      [
        -0.15045517683029175,
        -0.059781529009342194,
        0.00561500433832407,
        0.05253419652581215,
        0.044358376413583755,
        0.23996950685977936,
        -0.010645642876625061,
        0.010629914700984955,
        0.009941447526216507,
        0.11639195680618286,
        0.13169647753238678,
        0.1784888356924057,
        -0.1498173475265503,
        -0.01291733793914318,
        0.13276036083698273,
        -0.29216936230659485
      ],
      [
        -0.005685884039849043,
        0.21895144879817963,
        -0.005554872564971447,
        -0.1790035367012024,
        0.017905855551362038,
        -0.049445781856775284,
        -0.03728076443076134,
        0.15279848873615265,
        -0.15420277416706085,
        0.1592434048652649,
        0.2341381460428238,
        0.18084228038787842,
        -0.12380585074424744,
        -0.12943682074546814,
        -0.0019140184158459306,
        -0.17182645201683044
      ],
      [
        -0.13758061826229095,
        0.16616901755332947,
        0.15161098539829254,
        0.011621026322245598,
        -0.06335875391960144,
        0.12857888638973236,
        0.2630007565021515,
        0.14003106951713562,
        -0.08674994111061096,
        -0.0060812183655798435,
        -0.07476652413606644,
        0.2184799462556839,
        -0.21931041777133942,
        0.10123144090175629,
        0.036193326115608215,
        -0.020751122385263443
      ],
      [
        0.08647159487009048,
        -0.11397051066160202,
        -0.06433182954788208,
        -0.06783427298069,
        -0.04442387819290161,
        -0.25457245111465454,
        -0.06624770164489746,
        -0.11865899711847305,
        -0.1576051115989685,
        0.04409525543451309,
        0.22579428553581238,
        -0.07626842707395554,
        -0.03516406938433647,
        0.015365589410066605,
        0.017937706783413887,
        -0.07502585649490356
      ],
      [
        -0.22083233296871185,
        -0.02856113761663437,
        -0.09843847900629044,
        0.12175967544317245,
        -0.1198277622461319,
        0.048998624086380005,
        -0.01479335781186819,
        0.0837884470820427,
        -0.08894699066877365,
        0.0502106249332428,
        0.14936447143554688,
        0.16910551488399506,
        -0.03158475086092949,
        0.20095251500606537,
        -0.025421151891350746,
        0.0033779710065573454
      ],
      [
        0.07382401823997498,
        -0.21234974265098572,
        -0.11543271690607071,
        0.17225246131420135,
        -0.036373574286699295,
        0.02370811253786087,
        0.01495263073593378,
        -0.068485789000988,
        0.16965648531913757,
        0.07207129150629044,
        -0.07634597271680832,
        0.1944541484117508,
        0.05827254056930542,
        0.09217842668294907,
        0.04028614982962608,
        0.049863409250974655
      ],
      [
        0.2518356740474701,
        -0.024947378784418106,
        -0.06376032531261444,
        -0.08668969571590424,
        -0.09581766277551651,
        -0.0907379686832428,
        0.0811932235956192,
        -0.08832097053527832,
        -0.10357097536325455,
        -0.1276368498802185,
        0.1039857268333435,
        0.026151565834879875,
        0.1048528403043747,
        -0.15441590547561646,
        -0.17150458693504333,
        -0.0020923553965985775
      ],
      [
        -0.03059445135295391,
        -0.14005310833454132,
        -0.026189640164375305,
        0.24758338928222656,
        -0.06493481248617172,
        -0.041396789252758026,
        -0.10102005302906036,
        -0.20835423469543457,
        0.13578717410564423,
        0.09053586423397064,
        -0.012102331966161728,
        0.18807941675186157,
        0.023420561105012894,
        -0.14126814901828766,
        0.10050685703754425,
        0.18736302852630615
      ],
      [
        -0.12328501045703888,
        0.23439952731132507,
        0.073312908411026,
        0.09524068236351013,
        -0.09667792171239853,
        0.14592406153678894,
        -0.09090852737426758,
        -0.15832868218421936,
        0.14043423533439636,
        -0.04169504716992378,
        0.02079920470714569,
        -0.05647840350866318,
        0.11950104683637619,
        0.0187577735632658,
        -0.051895737648010254,
        0.17631597816944122
      ],
      [
        0.14297522604465485,
        -0.06208919733762741,
        0.06764187663793564,
        -0.04805740714073181,
        -0.05488281697034836,
        -0.20466521382331848,
        -0.052151840180158615,
        0.08661718666553497,
        -0.1358317732810974,
        0.02368782088160515,
        -0.008510157465934753,
        0.07073532044887543,
        0.008702537976205349,
        0.04137035459280014,
        0.1400947868824005,
        0.026220856234431267
      ],
      [
        -0.07996910810470581,
        -0.04361414164304733,
        -0.025822268798947334,
        0.19156593084335327,
        -0.1277671605348587,
        -0.09762141108512878,
        -0.146813303232193,
        0.030496710911393166,
        -0.06375190615653992,
        0.03801899775862694,
        -0.005121833179146051,
        0.05271877348423004,
        0.0798286646604538,
        -0.13586421310901642,
        0.14218731224536896,
        -0.16289600729942322
      ],
      [
        0.15587975084781647,
        -0.07473992556333542,
        0.0940975621342659,
        0.16883504390716553,
        0.05459914356470108,
        -0.023078054189682007,
        -0.022324131801724434,
        -0.18460287153720856,
        -0.0119105139747262,
        0.14014855027198792,
        0.10624685138463974,
        0.13417573273181915,
        -0.05583585053682327,
        0.1805986762046814,
        -0.18026727437973022,
        0.01953446865081787
      ],
      [
        -0.17473292350769043,
        -0.1702219396829605,
        -0.043603070080280304,
        0.04935082793235779,
        -0.052853889763355255,
        -0.056881748139858246,
        -0.01271158829331398,
        -0.015462569892406464,
        -0.010260763578116894,
        -0.11570463329553604,
        0.07321044057607651,
        0.018774405121803284,
        -0.15274052321910858,
        0.1878209114074707,
        0.12448492646217346,
        0.06189379096031189
      ],
      [
        -0.12716129422187805,
        -0.17639188468456268,
        -0.049983151257038116,
        0.08697905391454697,
        0.08413814008235931,
        -0.1438494622707367,
        -0.003347116755321622,
        0.018894366919994354,
        -0.1667783260345459,
        0.07482495158910751,
        -0.13823473453521729,
        -0.22110845148563385,
        -0.07783089578151703,
        0.021475866436958313,
        0.08696533739566803,
        0.03901979699730873
      ],
      [
        0.16911491751670837,
        -0.16049540042877197,
        0.041827067732810974,
        0.07526693493127823,
        0.11082248389720917,
        0.14650177955627441,
        -0.001837623305618763,
        0.1075444296002388,
        -0.07667286694049835,
        0.08884793519973755,
        0.16587957739830017,
        0.11717084795236588,
        0.11488398164510727,
        -0.16006439924240112,
        0.024369239807128906,
        -0.05239398404955864
      ],
      [
        0.0704011395573616,
        -0.03564830124378204,
        -0.14639487862586975,
        0.16569934785366058,
        0.014915965497493744,
        -0.017220187932252884,
        0.00015827195602469146,
        -0.16510431468486786,
        -0.19701944291591644,
        -0.17675380408763885,
        -0.17981231212615967,
        -0.06536868959665298,
        0.07309714704751968,
        0.01902134343981743,
        0.02489197440445423,
        -0.11535658687353134
      ],
      [
        0.08452464640140533,
        -0.12969203293323517,
        0.20382344722747803,
        0.1018194854259491,
        0.006974889896810055,
        -0.1429077684879303,
        0.13473652303218842,
        0.1417134553194046,
        0.10115279257297516,
        -0.08635538071393967,
        -0.009299625642597675,
        -0.08580091595649719,
        -0.04552995041012764,
        -0.1391686499118805,
        0.14609751105308533,
        0.21932008862495422
      ],
      [
        -0.1221189871430397,
        -0.05900874733924866,
        -0.06893885880708694,
        -0.2563405930995941,
        0.11394886672496796,
        0.12228661775588989,
        0.21068131923675537,
        0.04565172642469406,
        0.014316495507955551,
        -0.07437049597501755,
        -0.04899401590228081,
        -0.15862983465194702,
        0.06694483011960983,
        0.06303326040506363,
        -0.06229431927204132,
        -0.0341779962182045
      ],
      [
        0.0048050000332295895,
        0.25957271456718445,
        -0.0005693839048035443,
        -0.1766885370016098,
        -0.05216120555996895,
        -0.025085464119911194,
        0.11296471953392029,
        0.03944232687354088,
        0.16903717815876007,
        -0.005635248962789774,
        0.23851391673088074,
        0.1398661881685257,
        0.031995829194784164,
        -0.11179626733064651,
        0.05542362853884697,
        0.14279049634933472
      ],
      [
        -0.1349930465221405,
        -0.208968386054039,
        0.16172462701797485,
        -0.18371109664440155,
        0.12027473747730255,
        0.2075985223054886,
        0.24496746063232422,
        -0.16192105412483215,
        0.13962335884571075,
        -0.12475799769163132,
        0.07190178334712982,
        -0.24288620054721832,
        0.017864467576146126,
        0.07097221910953522,
        0.06214164197444916,
        -0.13002847135066986
      ],
      [
        -0.12027138471603394,
        0.13313134014606476,
        -0.13208767771720886,
        -0.09919280558824539,
        0.20051024854183197,
        0.006819355301558971,
        -0.060736678540706635,
        -0.14863698184490204,
        0.12169712781906128,
        -0.15010347962379456,
        -0.10546807944774628,
        -0.12448211759328842,
        0.09071086347103119,
        0.10699695348739624,
        -0.19006897509098053,
        0.11136042326688766
      ],
      [
        -0.1183801144361496,
        -0.10688447207212448,
        0.05423006787896156,
        -0.1528249830007553,
        0.12252116203308105,
        -0.06030556559562683,
        0.0876665934920311,
        -0.08602485805749893,
        0.07757116109132767,
        -0.10742533951997757,
        0.017663124948740005,
        -0.012274188920855522,
        0.11798447370529175,
        -0.0247350987046957,
        -0.044694650918245316,
        0.18058185279369354
      ],
      [
        0.1836167871952057,
        0.22886793315410614,
        -0.16378436982631683,
        0.07652082294225693,
        -0.07998112589120865,
        -0.02200852334499359,
        -0.0659685730934143,
        -0.008634287863969803,
        0.002765873447060585,
        0.01435121987015009,
        -0.14416013658046722,
        -0.03026334010064602,
        0.17679579555988312,
        -0.08242060989141464,
        0.13735948503017426,
        -0.016179360449314117
      ],
      [
        -0.11984237283468246,
        -0.15449094772338867,
        0.1852596253156662,
        -0.10372414439916611,
        0.14336644113063812,
        -0.08843778073787689,
        -0.15332253277301788,
        -0.04388556256890297,
        -0.11974594742059708,
        0.13405349850654602,
        -0.18649359047412872,
        -0.1527983546257019,
        -0.1940513402223587,
        0.1129714846611023,
        -0.17048680782318115,
        -0.1650240272283554
      ],
      [
        -0.15863382816314697,
        -0.08786454051733017,
        -0.07529696077108383,
        -0.03829857334494591,
        -0.19669342041015625,
        0.24468298256397247,
        -0.212919682264328,
        -0.04053495451807976,
        -0.13034994900226593,
        -0.05506638437509537,
        0.05519109591841698,
        0.26796358823776245,
        0.13046768307685852,
        0.10179320722818375,
        0.13115178048610687,
        -0.0934610441327095
      ],
      [
        0.14432530105113983,
        -0.16895100474357605,
        -0.04475701227784157,
        -0.0781237781047821,
        0.18866920471191406,
        -0.018363717943429947,
        -0.18065695464611053,
        0.06971408426761627,
        -0.0293740164488554,
        -0.1426195353269577,
        -0.1918758749961853,
        -0.007807117886841297,
        0.12293822318315506,
        -0.12931308150291443,
        0.05522848665714264,
        -0.18835283815860748
      ],
      [
        0.03392833471298218,
        0.16329361498355865,
        -0.17576123774051666,
        -0.00044147580047138035,
        0.15294359624385834,
        0.029218081384897232,
        -0.12685877084732056,
        -0.0127074234187603,
        -0.0999024286866188,
        0.18723614513874054,
        -0.02232874184846878,
        0.19242778420448303,
        0.13680751621723175,
        -0.07183344662189484,
        0.13743175566196442,
        0.14993201196193695
      ],
      [
        -0.03404504805803299,
        0.09462715685367584,
        0.022442081943154335,
        -0.18701563775539398,
        0.039221376180648804,
        -0.06291647255420685,
        0.15717683732509613,
        0.062225092202425,
        -0.01155512873083353,
        0.10680072009563446,
        0.18985438346862793,
        -0.009154429659247398,
        -0.1084643304347992,
        0.1767183244228363,
        0.004209399688988924,
        -0.15437909960746765
      ],
      [
        0.07532291114330292,
        -0.10261319577693939,
        0.06217934936285019,
        0.23476092517375946,
        -0.0645616427063942,
        0.0975969135761261,
        -0.07931037992238998,
        -0.010865433141589165,
        0.18030986189842224,
        -0.004350473638623953,
        -0.1615675687789917,
        0.17210498452186584,
        -0.06413313001394272,
        0.07500649988651276,
        -0.03606657683849335,
        0.09922455251216888
      ],
      [
        0.09217602759599686,
        0.001191380899399519,
        -0.0378958098590374,
        0.12032736837863922,
        0.17505890130996704,
        0.11848009377717972,
        0.22228369116783142,
        -0.17265374958515167,
        0.0482524111866951,
        0.21115617454051971,
        0.14572352170944214,
        -0.0074541703797876835,
        0.10274410992860794,
        0.0931355357170105,
        -0.09276535362005234,
        -0.07468460500240326
      ],
      [
        -0.0011285282671451569,
        0.18442508578300476,
        -0.0773514062166214,
        0.011030447669327259,
        -0.08498509228229523,
        -0.05297975614666939,
        -0.16237293183803558,
        -0.06641200184822083,
        0.08987043052911758,
        0.18812265992164612,
        0.13715554773807526,
        0.19865424931049347,
        -0.020147040486335754,
        -0.10456163436174393,
        0.17455559968948364,
        0.10177026689052582
      ],
      [
        -0.08638361096382141,
        -0.12378980219364166,
        -0.08002780377864838,
        0.055584412068128586,
        0.0554354190826416,
        -0.1136975809931755,
        0.14164228737354279,
        0.13642534613609314,
        -0.016851413995027542,
        0.08507800847291946,
        -0.05718379467725754,
        0.08569415658712387,
        -0.08988931775093079,
        -0.07617318630218506,
        0.05598045885562897,
        0.12511643767356873
      ],
      [
        -0.05504319444298744,
        0.1696755439043045,
        -0.07316645234823227,
        0.021670740097761154,
        0.027163222432136536,
        -0.1937277913093567,
        -0.14322124421596527,
        0.06125681474804878,
        -0.14092876017093658,
        0.0796477198600769,
        -0.07813999056816101,
        0.18182002007961273,
        -0.057032693177461624,
        -0.026535701006650925,
        -0.008641882799565792,
        -0.09031127393245697
      ],
      [
        0.2216140478849411,
        -0.1433795839548111,
        0.14026929438114166,
        0.06031632050871849,
        -0.08644601702690125,
        -0.16905632615089417,
        -0.1406601071357727,
        -0.03755730018019676,
        -0.10189059376716614,
        -0.04220820590853691,
        -0.12014194577932358,
        -0.21394939720630646,
        -0.08079520612955093,
        0.030696308240294456,
        0.06883115321397781,
        0.05767020583152771
      ],
      [
        -0.015885623171925545,
        -0.11208224296569824,
        -0.13711954653263092,
        0.18671078979969025,
        0.10212411731481552,
        -0.035861704498529434,
        -0.02435316890478134,
        0.1025615707039833,
        0.07509417831897736,
        0.0962819829583168,
        -0.21038386225700378,
        0.1721283346414566,
        -0.03828363120555878,
        0.1935979276895523,
        0.03645142912864685,
        -0.03744181618094444
      ],
      [
        0.04159509018063545,
        -0.10323695838451385,
        0.07638678699731827,
        -0.031288981437683105,
        -0.0826633870601654,
        0.12537895143032074,
        0.20910240709781647,
        -0.03211352974176407,
        -0.09569451212882996,
        -0.14886242151260376,
        0.0975334644317627,
        0.12398627400398254,
        0.03369073569774628,
        0.12372296303510666,
        -0.060838732868433,
        0.10744751989841461
      ],
      [
        0.10195808857679367,
        -0.15504981577396393,
        0.17991381883621216,
        -0.2828398644924164,
        0.028069939464330673,
        -0.12609075009822845,
        0.11744880676269531,
        0.09964344650506973,
        -0.04661450907588005,
        -0.13741296529769897,
        -0.12804117798805237,
        -0.07104535400867462,
        -0.1523711383342743,
        -0.11972157657146454,
        0.09939665347337723,
        0.13576434552669525
      ]
    ],
    "sequence_encoder.encoder.weight_hh_l0": [
      [
        0.12322234362363815,
        0.17598029971122742,
        -0.09600313007831573,
        0.19491273164749146,
        -0.13409705460071564,
        0.04500060901045799,
        -0.08152765780687332,
        0.005447337403893471,
        0.04726790636777878,
        0.015225592069327831,
        0.1745530366897583,
        0.13215304911136627,
        -0.08143556118011475,
        0.02191486768424511,
        -0.02185318060219288,
        -0.01912740245461464,
        0.048397235572338104,
        0.1671047806739807,
        0.08575363457202911,
        0.252731055021286,
        0.008991401642560959,
        -0.19465823471546173,
        -0.15766026079654694,
        -0.045907162129879,
        -0.02557247318327427,
        -0.11383531987667084,
        0.1187664046883583,
        0.12187302112579346,
        -0.012575550936162472,
        0.11612418293952942,
        0.06876889616250992,
        0.03682004660367966
      ],
      [
        -0.17568069696426392,
        0.10353530198335648,
        -0.2831536829471588,
        -0.23259703814983368,
        -0.12691210210323334,
        -0.25414133071899414,
        -0.1428546905517578,
        -0.021331502124667168,
        0.041093286126852036,
        0.2461925446987152,
        -0.14547641575336456,
        -0.03034273162484169,
        0.14800547063350677,
        0.2525944709777832,
        0.10400401800870895,
        0.01209605298936367,
        0.17864614725112915,
        0.06057555228471756,
        0.03910540044307709,
        -0.11588063091039658,
        0.17439351975917816,
        -0.012719706632196903,
        0.18091095983982086,
        -0.17268435657024384,
        0.09185122698545456,
        -0.10432987660169601,
        0.20980773866176605,
        -0.0035978578962385654,
        -0.1658623069524765,
        0.11770838499069214,
        0.045064378529787064,
        0.17580978572368622
      ],
      [
        0.01968221180140972,
        -0.06485709547996521,
        0.2818271517753601,
        0.027822868898510933,
        -0.0297457966953516,
        0.07714832574129105,
        0.014787337742745876,
        0.0956648513674736,
        -0.14934881031513214,
        0.046282827854156494,
        0.14595559239387512,
        0.0031653656624257565,
        -0.1407157927751541,
        0.08301705867052078,
        0.25026610493659973,
        0.053832508623600006,
        0.014485916122794151,
        0.17957180738449097,
        -0.058071915060281754,
        0.2437431961297989,
        0.29038697481155396,
        0.013163086958229542,
        0.11672636866569519,
        -0.02148355543613434,
        0.023660067468881607,
        -0.13205988705158234,
        -0.08453577011823654,
        0.18614809215068817,
        0.22264140844345093,
        0.11432844400405884,
        0.08507566899061203,
        -0.09814595431089401
      ],
      [
        -0.2240390032529831,
        -0.1590157449245453,
        0.2097334861755371,
        -0.02897590957581997,
        0.1080993264913559,
        0.15167559683322906,
        -0.28326404094696045,
        0.17236526310443878,
        0.10495846718549728,
        0.143838033080101,
        0.059279315173625946,
        0.09217354655265808,
        -0.056187499314546585,
        0.1504533439874649,
        0.01014948170632124,
        0.04332301393151283,
        -0.11163138598203659,
        0.22492080926895142,
        -0.17871664464473724,
        -0.04409531131386757,
        -0.002563194837421179,
        0.09202706813812256,
        0.010976597666740417,
        -0.17990663647651672,
        -0.24124598503112793,
        0.23584704101085663,
        0.23452670872211456,
        0.17491284012794495,
        0.0824618712067604,
        0.2998408377170563,
        0.1793793886899948,
        0.03986964747309685
      ],
      [
        -0.09901292622089386,
        -0.097773976624012,
        0.012614893727004528,
        0.20547610521316528,
        0.05528951436281204,
        -0.11879273504018784,
        0.052522510290145874,
        0.035065919160842896,
        0.08030620962381363,
        0.015630237758159637,
        -0.009393948130309582,
        0.14222490787506104,
        0.11130969226360321,
        -0.0706736147403717,
        -0.00867842510342598,
        -0.2532658874988556,
        -0.0411827526986599,
        0.05755190923810005,
        -0.07589375227689743,
        0.02823176421225071,
        -0.06690193712711334,
        -0.15154987573623657,
        0.08653008937835693,
        0.1979566365480423,
        0.11030436307191849,
        -0.12452644109725952,
        0.06288467347621918,
        -0.04008098691701889,
        0.056106168776750565,
        -0.08462192863225937,
        0.011925909668207169,
        0.0789564847946167
      ],
      [
        -0.1744294911623001,
        0.22503656148910522,
        0.1450260579586029,
        0.11963954567909241,
        0.1017676442861557,
        0.12032445520162582,
        0.14815910160541534,
        0.01793418638408184,
        0.07513725012540817,
        -0.12697812914848328,
        -0.021158821880817413,
        0.13604594767093658,
        0.06582727283239365,
        0.1616552472114563,
        -0.2611392140388489,
        0.07070951163768768,
        0.23767566680908203,
        0.01938099041581154,
        -0.10462803393602371,
        -0.09124332666397095,
        -0.238615944981575,
        0.0458514429628849,
        0.007598505355417728,
        -0.3999745547771454,
        0.01651250384747982,
        0.3036045432090759,
        -0.05465560033917427,
        0.25217974185943604,
        -0.057180020958185196,
        -0.06247704103589058,
        -0.0470835343003273,
        0.1804255247116089
      ],
      [
        0.01953541487455368,
        -0.08340641111135483,
        -0.05885366350412369,
        -0.09285172820091248,
        0.14490269124507904,
        -0.007671943865716457,
        0.04239736497402191,
        0.07332789897918701,
        0.14007695019245148,
        0.07622110843658447,
        0.10956034809350967,
        0.04391918703913689,
        0.020535187795758247,
        -0.14588764309883118,
        0.009923592209815979,
        0.03940003737807274,
        0.049281906336545944,
        0.0068830163218081,
        0.11566539853811264,
        0.12264115363359451,
        0.09009842574596405,
        0.11472746729850769,
        -0.0911615788936615,
        -0.12149441987276077,
        -0.17323721945285797,
        -0.04575055465102196,
        -0.13387954235076904,
        0.13453179597854614,
        0.17752398550510406,
        -0.04628672078251839,
        0.0010843045311048627,
        0.09911938011646271
      ],
      [
        -0.10344754904508591,
        -0.03374246507883072,
        0.263983815908432,
        -0.17519532144069672,
        -0.015135754831135273,
        -0.06669799238443375,
        -0.1347007304430008,
        0.12865285575389862,
        0.09728925675153732,
        0.2415602058172226,
        0.21063114702701569,
        -0.0548543743789196,
        0.14833104610443115,
        0.13238531351089478,
        -0.14122185111045837,
        -0.04210368171334267,
        -0.24888621270656586,
        0.211884006857872,
        -0.21810679137706757,
        0.09268134087324142,
        0.2404954880475998,
        0.14627784490585327,
        0.027497489005327225,
        0.062038861215114594,
        -0.14014221727848053,
        0.03544432669878006,
        -0.07595177739858627,
        0.03139236569404602,
        0.01935451291501522,
        0.07895822823047638,
        -0.1164219081401825,
        -0.12497539073228836
      ],
      [
        -0.07295775413513184,
        0.01738922856748104,
        0.0415748693048954,
        0.1619875580072403,
        -0.0988108441233635,
        -0.0903468206524849,
        0.060456532984972,
        0.07771410048007965,
        0.04217854514718056,
        0.2613450586795807,
        0.1711062341928482,
        0.06935771554708481,
        -0.048589590936899185,
        0.17897184193134308,
        -0.06191074103116989,
        -0.08308274298906326,
        0.060916345566511154,
        0.0029028216376900673,
        -0.2541896402835846,
        0.015323219820857048,
        0.23858146369457245,
        0.06358602643013,
        0.03578466176986694,
        0.16618254780769348,
        0.06575987488031387,
        0.13406142592430115,
        -0.037806157022714615,
        0.08434780687093735,
        0.2821885347366333,
        0.13306257128715515,
        -0.022350814193487167,
        -0.18143774569034576
      ],
      [
        -0.22733989357948303,
        0.057931240648031235,
        0.17810380458831787,
        -0.13588669896125793,
        0.22719721496105194,
        -0.13924120366573334,
        -0.1885293424129486,
        -0.23040851950645447,
        -0.20035168528556824,
        0.19681289792060852,
        0.10596377402544022,
        0.08881185203790665,
        0.12765532732009888,
        -0.0709785521030426,
        0.03465573489665985,
        -0.1205979511141777,
        -0.11861994117498398,
        -0.03234868869185448,
        0.027073023840785027,
        0.09344673901796341,
        0.09953194856643677,
        0.05578483268618584,
        -0.14965364336967468,
        -0.00959082879126072,
        -0.14351724088191986,
        -0.1662277728319168,
        -0.15764150023460388,
        0.045629650354385376,
        0.23998096585273743,
        0.22841238975524902,
        0.02475837431848049,
        0.12172365188598633
      ],
      [
        -0.06292667984962463,
        -0.26735591888427734,
        0.02661827765405178,
        0.07778146862983704,
        0.16316482424736023,
        -0.06316768378019333,
        0.07394469529390335,
        0.14409410953521729,
        -0.1876080334186554,
        0.09655126184225082,
        -0.14885900914669037,
        0.0866585224866867,
        -0.07240121066570282,
        -0.06919196248054504,
        0.13334229588508606,
        0.020371517166495323,
        -0.02510884776711464,
        -0.03305291756987572,
        0.07443675398826599,
        0.2674575448036194,
        0.15325330197811127,
        -0.030857404693961143,
        -0.03518207371234894,
        0.1994331330060959,
        0.013778398744761944,
        -0.06232036277651787,
        -0.17170898616313934,
        0.14914898574352264,
        0.1614219695329666,
        0.04103013128042221,
        0.02185114286839962,
        0.022502850741147995
      ],
      [
        0.10676207393407822,
        -0.006364003289490938,
        -0.17155037820339203,
        0.08942714333534241,
        -0.08155731856822968,
        -0.07352206110954285,
        -0.20985031127929688,
        -0.1616126447916031,
        0.09107090532779694,
        0.20874840021133423,
        0.24889929592609406,
        0.07678087800741196,
        0.18952630460262299,
        0.06317462027072906,
        0.05168663337826729,
        0.048532165586948395,
        -0.2155349850654602,
        0.0035557588562369347,
        0.019098808988928795,
        0.0332503579556942,
        0.10184955596923828,
        0.052580397576093674,
        0.1820574700832367,
        0.056146908551454544,
        -0.13161295652389526,
        -0.00314327678643167,
        0.11693861335515976,
        0.10420835018157959,
        0.07322939485311508,
        0.20042692124843597,
        -0.06519348174333572,
        0.026750780642032623
      ],
      [
        0.019345564767718315,
        0.0685340091586113,
        0.1583586484193802,
        -0.0254027359187603,
        0.0062478529289364815,
        0.12600935995578766,
        -0.022317055612802505,
        -0.02237517572939396,
        0.17169320583343506,
        -0.050515253096818924,
        -0.1276942938566208,
        -0.13115935027599335,
        0.05988367274403572,
        -0.0837625190615654,
        -0.015853935852646828,
        -0.16260704398155212,
        0.12151367217302322,
        -0.07530561834573746,
        -0.16468456387519836,
        0.013957515358924866,
        -0.02075912244617939,
        0.14644211530685425,
        0.10381820052862167,
        -0.043294861912727356,
        0.021037444472312927,
        -0.0307839997112751,
        -0.0322992280125618,
        -0.05246393382549286,
        0.0054541840218007565,
        0.01702919229865074,
        -0.009900554083287716,
        0.101180300116539
      ],
      [
        -0.02069106325507164,
        0.009700440801680088,
        -0.18600839376449585,
        0.12259266525506973,
        -0.15763993561267853,
        -0.1607164442539215,
        -0.06644423305988312,
        0.14108262956142426,
        0.1245754212141037,
        0.12542304396629333,
        0.02112739160656929,
        -0.14864440262317657,
        0.20287519693374634,
        0.22933830320835114,
        -0.12267810851335526,
        -0.08801984786987305,
        0.01926448382437229,
        -0.10433461517095566,
        -0.15987376868724823,
        -0.1522459238767624,
        -0.11284548044204712,
        0.034947719424963,
        -0.04492450878024101,
        0.05613867565989494,
        -0.14778178930282593,
        0.10588445514440536,
        0.16480839252471924,
        -0.06662643700838089,
        0.1066567525267601,
        -0.0990886315703392,
        0.18357938528060913,
        -0.08227667957544327
      ],
      [
        0.08462927490472794,
        -0.22467133402824402,
        0.19779476523399353,
        -0.027825184166431427,
        0.052820466458797455,
        -0.018253734335303307,
        -0.05147739499807358,
        -0.00985895749181509,
        -0.07413705438375473,
        -0.08196469396352768,
        0.047064393758773804,
        0.09079663455486298,
        -0.0681094378232956,
        -0.06763801723718643,
        0.06894811242818832,
        -0.08439192175865173,
        -0.03337015584111214,
        -0.0755324438214302,
        0.049610208719968796,
        0.22280654311180115,
        -0.12499535828828812,
        0.0044651515781879425,
        0.12058102339506149,
        0.03626282513141632,
        -0.07741356641054153,
        0.18469081819057465,
        0.07125776261091232,
        -0.08537865430116653,
        0.13562484085559845,
        0.19435034692287445,
        -0.13657307624816895,
        -0.21478445827960968
      ],
      [
        -0.17317678034305573,
        -0.2215915471315384,
        0.06745850294828415,
        -0.05759703740477562,
        -0.1496822088956833,
        0.05861370265483856,
        -0.03824048861861229,
        -0.015383303165435791,
        0.09022241830825806,
        0.06279006600379944,
        -0.12407663464546204,
        -0.18600378930568695,
        0.14269742369651794,
        0.0458688884973526,
        -0.11277547478675842,
        -0.21238020062446594,
        0.041014205664396286,
        0.012037180364131927,
        -0.08034726232290268,
        0.07364862412214279,
        0.11566310375928879,
        0.24978166818618774,
        0.1687648445367813,
        -0.0915520042181015,
        -0.15516117215156555,
        0.0945732444524765,
        -0.019412657245993614,
        -0.06542986631393433,
        0.14626748859882355,
        -0.009416477754712105,
        -0.06323721259832382,
        -0.1095656305551529
      ],
      [
        -0.053816668689250946,
        0.061251018196344376,
        -0.07460449635982513,
        0.05278223752975464,
        0.04406391829252243,
        0.05056076869368553,
        -0.05589361861348152,
        0.11041667312383652,
        0.011925358325242996,
        -0.10397825390100479,
        0.20081885159015656,
        -0.052869025617837906,
        -0.11205632984638214,
        0.18046322464942932,
        -0.05006375163793564,
        0.0570695661008358,
        -0.13624508678913116,
        0.07708899676799774,
        0.09776634722948074,
        0.1661573052406311,
        0.12809784710407257,
        0.12018819153308868,
        0.12247845530509949,
        -0.13233351707458496,
        -0.09461338818073273,
        0.0921475812792778,
        -0.11417253315448761,
        -0.03400852158665657,
        -0.20610196888446808,
        -0.018293362110853195,
        0.13639451563358307,
        -0.053817808628082275
      ],
      [
        -0.13417120277881622,
        -0.06043112650513649,
        0.07651785761117935,
        -0.0016225922154262662,
        0.10104494541883469,
        0.15451116859912872,
        -0.05680393800139427,
        0.10353920608758926,
        -0.07252154499292374,
        0.20909790694713593,
        0.10247746855020523,
        -0.06541173905134201,
        0.059774529188871384,
        0.12923388183116913,
        0.0016717070247977972,
        0.03282373771071434,
        -0.11593665182590485,
        -0.016583429649472237,
        -0.32830044627189636,
        0.10376430302858353,
        0.1971830129623413,
        0.22295641899108887,
        -0.04070134833455086,
        0.11780357360839844,
        -0.30731892585754395,
        -0.06755917519330978,
        0.14493328332901,
        0.04690602049231529,
        0.18246649205684662,
        0.05344600975513458,
        -0.12946158647537231,
        -0.11582071334123611
      ],
      [
        -0.1547916829586029,
        -0.08694717288017273,
        -0.044962719082832336,
        -0.0740395337343216,
        0.10537543892860413,
        -0.0025223828852176666,
        -0.15672412514686584,
        -0.07378899306058884,
        -0.13684582710266113,
        0.058020077645778656,
        0.24003012478351593,
        0.19643732905387878,
        0.1617918610572815,
        0.22020363807678223,
        0.10628517717123032,
        -0.29307568073272705,
        -0.16355808079242706,
        0.07341460138559341,
        0.005816456861793995,
        0.041062191128730774,
        0.22883076965808868,
        -0.09657946974039078,
        -0.034203387796878815,
        0.13374516367912292,
        -0.2146279215812683,
        0.11597979068756104,
        -0.11932901293039322,
        -0.07134656608104706,
        0.18152792751789093,
        0.0708257257938385,
        0.025392791256308556,
        -0.19163379073143005
      ],
      [
        -0.22401703894138336,
        -0.10447660833597183,
        0.33681660890579224,
        0.07414289563894272,
        -0.13620762526988983,
        0.09877628087997437,
        -0.1096692755818367,
        -0.09791655093431473,
        -0.3407399356365204,
        0.039492204785346985,
        0.23106428980827332,
        -0.06490793079137802,
        -0.05892106145620346,
        -0.0009894004324451089,
        0.17465142905712128,
        -0.03146504983305931,
        -0.07955532521009445,
        0.30477604269981384,
        -0.08014135807752609,
        0.08444096893072128,
        0.22648058831691742,
        0.3402147591114044,
        -0.30650264024734497,
        -0.042766060680150986,
        -0.16167379915714264,
        0.06724324822425842,
        -0.3218356966972351,
        0.13761600852012634,
        0.04257890582084656,
        0.21676836907863617,
        0.006378087680786848,
        -0.06082496792078018
      ],
      [
        0.09401773661375046,
        -0.06121312454342842,
        0.07454922795295715,
        0.03805313631892204,
        0.043104205280542374,
        0.15286831557750702,
        -0.09919395297765732,
        0.04682060331106186,
        -0.17657725512981415,
        0.17435559630393982,
        0.16462978720664978,
        0.11563687771558762,
        -0.042303889989852905,
        0.11714248359203339,
        0.2810423672199249,
        0.010160776786506176,
        -0.08373207598924637,
        -0.01081034541130066,
        -0.16201433539390564,
        0.01748865470290184,
        0.026905156672000885,
        0.05247010290622711,
        0.028717003762722015,
        0.20174679160118103,
        -0.10104494541883469,
        -0.03939813748002052,
        -0.16448065638542175,
        -0.08490736037492752,
        -0.04328148439526558,
        0.19611355662345886,
        -0.012202948331832886,
        0.050867028534412384
      ],
      [
        -0.22568324208259583,
        0.034917790442705154,
        -0.0041749924421310425,
        0.07816106826066971,
        -0.03832891210913658,
        -0.137211412191391,
        -0.12385974824428558,
        0.23370793461799622,
        -0.08370877802371979,
        0.05375756695866585,
        0.1993745118379593,
        0.2134675234556198,
        0.0971996933221817,
        0.27684786915779114,
        0.14235273003578186,
        -0.17740550637245178,
        -0.06259935349225998,
        0.07125972956418991,
        0.06862524151802063,
        0.14629989862442017,
        0.01953374408185482,
        -0.03174354135990143,
        0.1120576485991478,
        -0.017006125301122665,
        -0.14096179604530334,
        0.13741271197795868,
        -0.07260243594646454,
        0.17344138026237488,
        0.16879743337631226,
        -0.022009296342730522,
        0.04910818114876747,
        0.19239690899848938
      ],
      [
        -0.01649879477918148,
        0.17319020628929138,
        0.0006214146269485354,
        -0.06261647492647171,
        -0.023209476843476295,
        -0.0716388076543808,
        0.1309565007686615,
        -0.2194548100233078,
        -0.06899582594633102,
        0.011560814455151558,
        0.07193141430616379,
        0.016377951949834824,
        0.009042426943778992,
        -0.14382074773311615,
        -0.1822914481163025,
        0.04287182539701462,
        0.10638286918401718,
        0.019776476547122,
        0.04411233589053154,
        -0.11865965276956558,
        0.05908259376883507,
        0.19398875534534454,
        -0.043568823486566544,
        0.0054133376106619835,
        0.19643160700798035,
        -0.055763211101293564,
        -0.062331829220056534,
        -0.031027181074023247,
        -0.12744273245334625,
        0.13039101660251617,
        -0.13075906038284302,
        0.01238259393721819
      ],
      [
        0.09385436773300171,
        -0.2915699779987335,
        0.04324337840080261,
        0.1271408498287201,
        -0.02283310331404209,
        0.029331302270293236,
        -0.19642819464206696,
        -0.09621212631464005,
        -0.1602729856967926,
        0.1324581652879715,
        -0.13020803034305573,
        -0.1472523957490921,
        -0.005643317475914955,
        -0.07899700850248337,
        -0.040006667375564575,
        -0.053294770419597626,
        -0.06023477390408516,
        0.18093374371528625,
        0.008344731293618679,
        0.3314906060695648,
        -0.19238223135471344,
        0.3716220557689667,
        -0.20798273384571075,
        0.041505131870508194,
        -0.30692434310913086,
        0.05370757356286049,
        0.11166134476661682,
        0.29143059253692627,
        0.13581854104995728,
        0.16948947310447693,
        -0.03714128956198692,
        -0.3186306357383728
      ],
      [
        -0.18486319482326508,
        -0.14536893367767334,
        0.024813931435346603,
        0.03374691307544708,
        0.08154106885194778,
        0.03289610520005226,
        -0.09132833778858185,
        0.03979431465268135,
        -0.06759600341320038,
        0.23431113362312317,
        0.10519814491271973,
        -0.007338420022279024,
        -0.08916608989238739,
        -0.020434826612472534,
        -0.10229466110467911,
        -0.04491139203310013,
        -0.005006728228181601,
        0.14457643032073975,
        0.10441175848245621,
        -0.17513999342918396,
        -0.09061311930418015,
        0.14395096898078918,
        0.08171547949314117,
        0.02471870929002762,
        -0.198682501912117,
        -0.06737353652715683,
        0.1358429491519928,
        0.165696382522583,
        -0.17423725128173828,
        0.10791188478469849,
        -0.11939730495214462,
        -0.05584859848022461
      ],
      [
        -0.12087217718362808,
        -0.009861591272056103,
        -0.19725552201271057,
        -0.16917158663272858,
        -0.0563114732503891,
        0.08326207101345062,
        -0.20133793354034424,
        0.06234821677207947,
        -0.033143702894449234,
        0.07786767184734344,
        0.13959984481334686,
        -0.1194731593132019,
        0.11589986085891724,
        0.2862659990787506,
        -0.03896702080965042,
        0.0678328424692154,
        -0.1044689416885376,
        0.15459834039211273,
        0.04193229600787163,
        -0.14541733264923096,
        0.16600297391414642,
        0.005251978524029255,
        0.21355736255645752,
        0.027160512283444405,
        -0.12205065041780472,
        0.20842865109443665,
        0.047412071377038956,
        0.2073855847120285,
        -0.09445419162511826,
        0.05404316261410713,
        0.007695402484387159,
        -0.039650965481996536
      ],
      [
        0.09290165454149246,
        -0.23106060922145844,
        -0.06797194480895996,
        -0.19041495025157928,
        0.07160843908786774,
        -0.010583765804767609,
        -0.16113220155239105,
        0.19043861329555511,
        0.19921597838401794,
        0.12741661071777344,
        -0.053645890206098557,
        -0.1115948036313057,
        -0.025862498208880424,
        -0.08705275505781174,
        -0.0644058808684349,
        -0.051355328410863876,
        -0.1438959389925003,
        0.1353321075439453,
        -0.23367634415626526,
        -0.21832820773124695,
        -0.05899149179458618,
        0.041066594421863556,
        0.15702280402183533,
        0.027212148532271385,
        -0.06636486947536469,
        0.17980967462062836,
        0.15910834074020386,
        -0.11884058266878128,
        -0.16411150991916656,
        0.037347953766584396,
        0.07481906563043594,
        0.0031393778044730425
      ],
      [
        -0.1705663651227951,
        -0.07783767580986023,
        0.11334267258644104,
        0.07333407551050186,
        0.12356948852539062,
        0.03273535892367363,
        -0.040506452322006226,
        0.27443864941596985,
        -0.10012423247098923,
        -0.06891417503356934,
        0.09063494950532913,
        0.04244109243154526,
        -0.08968915045261383,
        -0.0861913338303566,
        0.11382830142974854,
        -0.11198960244655609,
        -0.11010213196277618,
        -0.11149333417415619,
        -0.14287741482257843,
        0.2793405055999756,
        0.15717874467372894,
        -0.003481969004496932,
        -0.17625325918197632,
        -0.006917052436619997,
        -0.057170964777469635,
        0.10775528103113174,
        -0.06319274008274078,
        -0.010078951716423035,
        0.026183418929576874,
        0.19826506078243256,
        0.07008371502161026,
        0.2089843451976776
      ],
      [
        -0.1560206115245819,
        -0.1847546547651291,
        0.3032212555408478,
        0.15965701639652252,
        0.0148009629920125,
        0.2096322625875473,
        -0.20721280574798584,
        0.002386945765465498,
        0.12879683077335358,
        0.007802778854966164,
        0.15135639905929565,
        -0.2252960056066513,
        -0.21734941005706787,
        0.14431160688400269,
        -0.050095442682504654,
        -0.0740467756986618,
        0.0965328961610794,
        0.24448150396347046,
        -0.21046984195709229,
        0.30436015129089355,
        0.1003539189696312,
        0.36676740646362305,
        -0.3027399480342865,
        -0.09618629515171051,
        0.023730792105197906,
        0.13946668803691864,
        -0.012923021800816059,
        0.19829216599464417,
        0.03168678656220436,
        0.00863482803106308,
        0.12807540595531464,
        -0.2030416578054428
      ],
      [
        0.13777685165405273,
        -0.2914923429489136,
        -0.0009271205635741353,
        0.06796813011169434,
        0.07953903824090958,
        -0.1069331169128418,
        -0.019394652917981148,
        -0.06362845748662949,
        0.12566885352134705,
        0.01049165427684784,
        0.04556075483560562,
        -0.05956482142210007,
        -0.16181041300296783,
        0.08255364000797272,
        -0.14893703162670135,
        -0.07828707247972488,
        -0.20822632312774658,
        0.08733087033033371,
        0.09617091715335846,
        0.2469490021467209,
        -0.03995009884238243,
        0.13604815304279327,
        -0.2021855115890503,
        0.010930010117590427,
        0.022083483636379242,
        -0.10905089229345322,
        -0.06884314864873886,
        0.059472404420375824,
        -0.01148443017154932,
        -0.002339513273909688,
        0.06532623618841171,
        -0.19860637187957764
      ],
      [
        -0.04386046156287193,
        -0.10698647797107697,
        0.02001052536070347,
        -0.008728583343327045,
        0.07086925208568573,
        -0.020349599421024323,
        0.0033694328740239143,
        -0.19362090528011322,
        -0.1853034496307373,
        0.05411456152796745,
        0.06172926723957062,
        0.09581738710403442,
        -0.022994346916675568,
        -0.011836870573461056,
        -0.02391011454164982,
        0.035791054368019104,
        0.01020738109946251,
        0.11684777587652206,
        0.07337115705013275,
        0.06242158263921738,
        0.2384246587753296,
        -0.09359986335039139,
        0.03873128443956375,
        -0.09547413885593414,
        0.11138030886650085,
        -0.03263518214225769,
        -0.0901448205113411,
        0.06678416579961777,
        0.04589192569255829,
        0.18228140473365784,
        0.1870255321264267,
        -0.07096198201179504
      ],
      [
        0.016424477100372314,
        -0.039648111909627914,
        0.06209724768996239,
        0.11893822997808456,
        -0.005139307118952274,
        0.06116771697998047,
        0.005928636994212866,
        -0.11629406362771988,
        -0.11448533833026886,
        0.30038920044898987,
        0.1317579597234726,
        -0.174319326877594,
        0.031900517642498016,
        -0.06742758303880692,
        -0.0889957919716835,
        -0.04170701652765274,
        -0.060360781848430634,
        0.2759495675563812,
        -0.0385572649538517,
        0.00836133025586605,
        0.0954451635479927,
        0.2113809883594513,
        -0.18957535922527313,
        -0.08446981012821198,
        -0.0003502338076941669,
        0.00501183932647109,
        0.020515235140919685,
        0.09119617938995361,
        -0.06844066828489304,
        -0.022660940885543823,
        -0.11848075687885284,
        -0.2765810787677765
      ],
      [
        0.06833536177873611,
        -0.1328599601984024,
        0.16344483196735382,
        -0.03562869131565094,
        -0.10104887187480927,
        0.003751372918486595,
        0.1549437940120697,
        0.0014844619436189532,
        0.17957624793052673,
        0.21038591861724854,
        0.06896784901618958,
        -0.04741424322128296,
        -0.12248440831899643,
        -0.002192881889641285,
        -0.0062160370871424675,
        0.16431665420532227,
        0.051909439265728,
        0.13272599875926971,
        -0.16180641949176788,
        -0.1575428992509842,
        -0.0032635091338306665,
        0.2383602112531662,
        0.13765400648117065,
        -0.25436127185821533,
        0.038865864276885986,
        0.1550644040107727,
        0.08041202276945114,
        -0.08334707468748093,
        -0.04460059106349945,
        -0.2378021478652954,
        -0.11509798467159271,
        0.052355989813804626
      ],
      [
        -0.13056263327598572,
        -0.18728579580783844,
        0.23216502368450165,
        0.024204961955547333,
        0.1736043095588684,
        0.20479421317577362,
        -0.14528235793113708,
        0.10899040848016739,
        0.15330369770526886,
        -0.2083168476819992,
        0.04097248613834381,
        -0.10883740335702896,
        -7.21559626981616e-06,
        0.06407581269741058,
        -0.14031067490577698,
        -0.1760336309671402,
        0.023651303723454475,
        0.06316126883029938,
        0.16807851195335388,
        0.2583983838558197,
        0.08821729570627213,
        0.038701027631759644,
        -0.020390525460243225,
        0.0052621858194470406,
        -0.16897448897361755,
        0.1982821524143219,
        0.12205918878316879,
        0.19903261959552765,
        0.19993159174919128,
        0.02708631381392479,
        0.05376460403203964,
        -0.044900599867105484
      ],
      [
        -0.012602976523339748,
        0.11063627153635025,
        -0.1908838152885437,
        -0.04061984270811081,
        0.02309267595410347,
        -0.17847302556037903,
        -0.1496909111738205,
        -0.1003446951508522,
        -0.2342342883348465,
        -0.09930101782083511,
        -0.056462015956640244,
        -0.013618195429444313,
        0.04498886317014694,
        -0.00880482792854309,
        0.23197902739048004,
        0.020417725667357445,
        0.10008721798658371,
        0.11781355738639832,
        -0.2518898844718933,
        -0.2068430781364441,
        0.19153861701488495,
        0.10361596941947937,
        0.09116861969232559,
        0.05947686359286308,
        0.17180709540843964,
        0.06622029840946198,
        -0.06649146229028702,
        -0.10555484890937805,
        0.09968005865812302,
        0.11512631177902222,
        0.24766235053539276,
        0.032048191875219345
      ],
      [
        -0.023893604055047035,
        -0.19345948100090027,
        0.1711646318435669,
        0.12413531541824341,
        0.1071988195180893,
        0.15241111814975739,
        0.15364035964012146,
        0.19301028549671173,
        0.09455624222755432,
        -0.13309365510940552,
        -0.31939366459846497,
        -0.15200938284397125,
        -0.08660586923360825,
        0.08398248255252838,
        -0.13747668266296387,
        -0.17219436168670654,
        -0.18627804517745972,
        0.08823473006486893,
        0.10755050927400589,
        0.2336965948343277,
        -0.13027240335941315,
        0.02341480925679207,
        0.21601362526416779,
        0.12081291526556015,
        0.14034390449523926,
        0.1812305450439453,
        0.2569665312767029,
        0.18119320273399353,
        -0.09388108551502228,
        -0.10956904292106628,
        0.08825786411762238,
        -0.07484573125839233
      ],
      [
        -0.014305861666798592,
        -0.05717658996582031,
        0.09931416809558868,
        -0.046702705323696136,
        0.09588827937841415,
        0.034101277589797974,
        -0.012676861137151718,
        0.07530772686004639,
        -0.1180235967040062,
        -0.18553505837917328,
        -0.020308904349803925,
        0.2965390384197235,
        0.13975603878498077,
        0.15162912011146545,
        0.19274790585041046,
        0.178556889295578,
        0.10804637521505356,
        -2.687369124032557e-05,
        -0.11856982856988907,
        -0.06805690377950668,
        -0.07129626721143723,
        -0.15790405869483948,
        0.11507734656333923,
        0.1661614179611206,
        0.10507779568433762,
        -0.18145900964736938,
        0.19353991746902466,
        0.06732829660177231,
        -0.12811411917209625,
        0.16203764081001282,
        -0.007115274202078581,
        0.05009247735142708
      ],
      [
        0.04239049553871155,
        0.040852125734090805,
        -0.17136996984481812,
        0.11911821365356445,
        0.01722273789346218,
        -0.08768562227487564,
        0.04177595302462578,
        0.23576030135154724,
        0.07005008310079575,
        -0.10880890488624573,
        -0.0459832064807415,
        0.13013646006584167,
        0.01043393462896347,
        0.062278907746076584,
        -0.0262116938829422,
        -0.17705002427101135,
        -0.20691101253032684,
        -0.16124452650547028,
        0.16612763702869415,
        0.21197384595870972,
        0.10852114856243134,
        -0.21086549758911133,
        -0.004438336938619614,
        0.16055171191692352,
        -0.16044840216636658,
        0.12122536450624466,
        -0.26773878931999207,
        -0.03604508936405182,
        -0.08004917949438095,
        0.03037540428340435,
        -0.1753263771533966,
        -0.1297752857208252
      ],
      [
        -0.1322920322418213,
        0.09749196469783783,
        -0.10658296197652817,
        0.09717229008674622,
        -0.08618460595607758,
        0.11078362166881561,
        -0.03170670568943024,
        -0.048656661063432693,
        -0.16732560098171234,
        0.07805430144071579,
        0.0032257973216474056,
        -0.05581773445010185,
        0.14143434166908264,
        -0.14628976583480835,
        0.13616278767585754,
        0.16835346817970276,
        -0.0802176222205162,
        0.01475225854665041,
        -0.07487331330776215,
        0.09645261615514755,
        0.21480222046375275,
        -0.040030401200056076,
        -0.12971530854701996,
        -0.08266473561525345,
        -0.12511254847049713,
        -0.0011781738139688969,
        -0.012180461548268795,
        -0.22468973696231842,
        0.0485231988132,
        -0.10708437114953995,
        -0.07608900964260101,
        -0.04440321773290634
      ],
      [
        0.2162545770406723,
        -0.014933773316442966,
        0.10693909227848053,
        -0.12520085275173187,
        0.2396986037492752,
        0.020973417907953262,
        0.022957470268011093,
        0.09668446332216263,
        0.18235357105731964,
        -0.12606120109558105,
        -0.16929353773593903,
        -0.11179808527231216,
        -0.04551181197166443,
        -0.23046356439590454,
        0.081607386469841,
        0.14219410717487335,
        0.21417224407196045,
        -0.00952376239001751,
        0.21254101395606995,
        -0.14359548687934875,
        -0.0906933844089508,
        0.03728868067264557,
        0.23208624124526978,
        -0.04150556027889252,
        -0.016730958595871925,
        -0.034463800489902496,
        0.2538156807422638,
        -0.17599080502986908,
        -0.09412074089050293,
        0.11187928915023804,
        0.08566612005233765,
