{
  "version": "real-fastflow-multitask-v1",
  "source": {
    "name": "learningmatter-mit/peptimizer",
    "url": "https://raw.githubusercontent.com/learningmatter-mit/peptimizer/master/dataset/data_synthesis/synthesis_data.csv"
  },
  "targets": [
    "first_area",
    "first_height",
    "first_width",
    "first_diff"
  ],
  "numericFeatures": [
    "coupling_strokes",
    "deprotection_strokes",
    "flow_rate",
    "temp_coupling",
    "temp_reactor_1",
    "sequence_length"
  ],
  "categoricalFeatures": [
    "coupling_agent"
  ],
  "tokenAlphabet": [
    "<pad>",
    "A",
    "C",
    "D",
    "E",
    "F",
    "G",
    "H",
    "I",
    "K",
    "L",
    "M",
    "N",
    "P",
    "Q",
    "R",
    "S",
    "T",
    "V",
    "W",
    "Y"
  ],
  "splitStrategy": "grouped-by-serial",
  "splitSizes": {
    "train": 8907,
    "validation": 1791,
    "test": 1902
  },
  "serialSplitSizes": {
    "train": 538,
    "validation": 115,
    "test": 116
  },
  "datasetStats": {
    "rows": 12600,
    "uniqueSerials": 769,
    "maxPreChainLength": 49,
    "meanPreChainLength": 11.884761904761906
  },
  "huberDeltaSearch": {
    "candidateDeltas": [
      0.5,
      0.75,
      1.0,
      1.25,
      1.5
    ],
    "candidateCount": 15
  },
  "normalization": {
    "numericMean": [
      7.557538986206055,
      13.001459121704102,
      74346.0234375,
      51.385223388671875,
      84.7341079711914,
      11.989446640014648
    ],
    "numericStd": [
      1.9232277870178223,
      0.13773784041404724,
      13935.2685546875,
      30.362321853637695,
      17.16181755065918,
      8.971863746643066
    ],
    "targetMean": [
      0.8446053862571716,
      0.8668365478515625,
      0.988182544708252,
      -0.12134600430727005
    ],
    "targetStd": [
      0.18518447875976562,
      0.2176685631275177,
      0.11667510122060776,
      0.2966344952583313
    ]
  },
  "runtime": {
    "device_type": "cpu",
    "device_name": "cpu",
    "selection_reason": "auto-selected optimized CPU on macOS",
    "cpu_threads": 9,
    "interop_threads": 4,
    "num_workers": 5,
    "pin_memory": false,
    "persistent_workers": true,
    "prefetch_factor": 2,
    "non_blocking": false,
    "use_amp": false,
    "amp_dtype": null,
    "compile_model": false,
    "compile_mode": null
  },
  "bestConfig": {
    "name": "gru_residual_small_delta_0_75",
    "architecture": "gru",
    "max_length": 40,
    "embed_dim": 16,
    "sequence_hidden": 32,
    "numeric_hidden": 32,
    "trunk_hidden": 96,
    "dropout": 0.12,
    "learning_rate": 0.001,
    "weight_decay": 0.0001,
    "batch_size": 256,
    "max_epochs": 30,
    "patience": 5,
    "huber_delta": 0.75
  },
  "bestLoss": {
    "name": "HuberLoss",
    "delta": 0.75
  },
  "bestEpoch": 9,
  "validation": {
    "first_area": {
      "mae": 0.112753726541996,
      "rmse": 0.18053020536899567,
      "r2": 0.31115047511415295
    },
    "first_height": {
      "mae": 0.12147525697946548,
      "rmse": 0.18988336622714996,
      "r2": 0.4094070249962303
    },
    "first_width": {
      "mae": 0.0640416145324707,
      "rmse": 0.09105838090181351,
      "r2": 0.3774757467548069
    },
    "first_diff": {
      "mae": 0.1555788815021515,
      "rmse": 0.2246645987033844,
      "r2": 0.4885911150090466
    },
    "combinedMae": 0.11346236988902092,
    "combinedRmse": 0.17153413780033588
  },
  "test": {
    "first_area": {
      "mae": 0.09433773159980774,
      "rmse": 0.14874330163002014,
      "r2": -0.08617618614473699
    },
    "first_height": {
      "mae": 0.10623971372842789,
      "rmse": 0.17110005021095276,
      "r2": -0.11046422768105724
    },
    "first_width": {
      "mae": 0.06269466876983643,
      "rmse": 0.0912148728966713,
      "r2": 0.19786555330291788
    },
    "first_diff": {
      "mae": 0.15195006132125854,
      "rmse": 0.2371383011341095,
      "r2": -0.018913748440473777
    },
    "combinedMae": 0.10380554385483265,
    "combinedRmse": 0.16204913146793842
  },
  "candidateResults": [
    {
      "name": "gru_residual_small_delta_0_75",
      "architecture": "gru",
      "huberDelta": 0.75,
      "bestEpoch": 9,
      "validationCombinedRmse": 0.17153413780033588,
      "testCombinedRmse": 0.16204913146793842
    },
    {
      "name": "gru_residual_small_delta_0_5",
      "architecture": "gru",
      "huberDelta": 0.5,
      "bestEpoch": 9,
      "validationCombinedRmse": 0.17164636217057705,
      "testCombinedRmse": 0.1626147124916315
    },
    {
      "name": "gru_residual_small_delta_1_0",
      "architecture": "gru",
      "huberDelta": 1.0,
      "bestEpoch": 9,
      "validationCombinedRmse": 0.17196760140359402,
      "testCombinedRmse": 0.16264873929321766
    },
    {
      "name": "gru_residual_small_delta_1_25",
      "architecture": "gru",
      "huberDelta": 1.25,
      "bestEpoch": 9,
      "validationCombinedRmse": 0.17216552048921585,
      "testCombinedRmse": 0.16218724101781845
    },
    {
      "name": "gru_residual_small_delta_1_5",
      "architecture": "gru",
      "huberDelta": 1.5,
      "bestEpoch": 9,
      "validationCombinedRmse": 0.17243822664022446,
      "testCombinedRmse": 0.1614321619272232
    },
    {
      "name": "hybrid_residual_medium_delta_1_5",
      "architecture": "hybrid",
      "huberDelta": 1.5,
      "bestEpoch": 4,
      "validationCombinedRmse": 0.18117002584040165,
      "testCombinedRmse": 0.15298857912421227
    },
    {
      "name": "hybrid_residual_medium_delta_1_0",
      "architecture": "hybrid",
      "huberDelta": 1.0,
      "bestEpoch": 4,
      "validationCombinedRmse": 0.18153296038508415,
      "testCombinedRmse": 0.15074212849140167
    },
    {
      "name": "hybrid_residual_medium_delta_1_25",
      "architecture": "hybrid",
      "huberDelta": 1.25,
      "bestEpoch": 4,
      "validationCombinedRmse": 0.18161948584020138,
      "testCombinedRmse": 0.15154986083507538
    },
    {
      "name": "hybrid_residual_medium_delta_0_75",
      "architecture": "hybrid",
      "huberDelta": 0.75,
      "bestEpoch": 4,
      "validationCombinedRmse": 0.18209826201200485,
      "testCombinedRmse": 0.1479967925697565
    },
    {
      "name": "hybrid_residual_medium_delta_0_5",
      "architecture": "hybrid",
      "huberDelta": 0.5,
      "bestEpoch": 4,
      "validationCombinedRmse": 0.18234446085989475,
      "testCombinedRmse": 0.14501972869038582
    },
    {
      "name": "cnn_residual_medium_delta_1_5",
      "architecture": "cnn",
      "huberDelta": 1.5,
      "bestEpoch": 3,
      "validationCombinedRmse": 0.18378710933029652,
      "testCombinedRmse": 0.14226012118160725
    },
    {
      "name": "cnn_residual_medium_delta_1_25",
      "architecture": "cnn",
      "huberDelta": 1.25,
      "bestEpoch": 3,
      "validationCombinedRmse": 0.1843484826385975,
      "testCombinedRmse": 0.14203866757452488
    },
    {
      "name": "cnn_residual_medium_delta_0_5",
      "architecture": "cnn",
      "huberDelta": 0.5,
      "bestEpoch": 10,
      "validationCombinedRmse": 0.18442754819989204,
      "testCombinedRmse": 0.1515669859945774
    },
    {
      "name": "cnn_residual_medium_delta_1_0",
      "architecture": "cnn",
      "huberDelta": 1.0,
      "bestEpoch": 3,
      "validationCombinedRmse": 0.18443830125033855,
      "testCombinedRmse": 0.1405319608747959
    },
    {
      "name": "cnn_residual_medium_delta_0_75",
      "architecture": "cnn",
      "huberDelta": 0.75,
      "bestEpoch": 3,
      "validationCombinedRmse": 0.18480747006833553,
      "testCombinedRmse": 0.13866322487592697
    }
  ],
  "stateDict": {
    "sequence_encoder.embedding.weight": [
      [
        0.0,
        0.0,
        0.0,
        0.0,
        0.0,
        0.0,
        0.0,
        0.0,
        0.0,
        0.0,
        0.0,
        0.0,
        0.0,
        0.0,
        0.0,
        0.0
      ],
      [
        -0.7086179852485657,
        1.6159179210662842,
        -0.003357174340635538,
        -1.0503851175308228,
        -1.9218560457229614,
        0.8803676962852478,
        -1.3171449899673462,
        0.19466987252235413,
        0.8342615365982056,
        0.6396822333335876,
        0.3575436472892761,
        -0.06442463397979736,
        0.731040358543396,
        0.022268302738666534,
        1.304498314857483,
        0.2950335443019867
      ],
      [
        -0.9621838927268982,
        -0.28948670625686646,
        -0.8374854922294617,
        -1.5956720113754272,
        0.11009232699871063,
        0.18317794799804688,
        2.7585771083831787,
        -0.06262528896331787,
        0.8876723647117615,
        -1.4057172536849976,
        -2.0385820865631104,
        -0.6278160214424133,
        2.0700221061706543,
        -0.8117347359657288,
        -0.7520057559013367,
        -0.26255589723587036
      ],
      [
        -1.7723451852798462,
        1.3188934326171875,
        0.04037846252322197,
        1.5509644746780396,
        -1.4248336553573608,
        0.01917332410812378,
        -0.701056182384491,
        -0.028521711006760597,
        1.4539406299591064,
        -0.8793178796768188,
        -0.6993870735168457,
        -0.7832275032997131,
        0.03460809215903282,
        0.3623657524585724,
        1.2437374591827393,
        -1.8380987644195557
      ],
      [
        -1.146794319152832,
        0.36615875363349915,
        0.801803708076477,
        0.24202799797058105,
        0.3245041072368622,
        0.3748246729373932,
        1.5441176891326904,
        0.3872568905353546,
        0.39191916584968567,
        -0.17332851886749268,
        -0.09405263513326645,
        0.12586610019207,
        -0.17155703902244568,
        -0.06409920752048492,
        0.7968720197677612,
        -1.027364730834961
      ],
      [
        -0.9934850931167603,
        0.5705782175064087,
        -0.48991045355796814,
        1.5886260271072388,
        -1.3425772190093994,
        -0.28590553998947144,
        0.7607590556144714,
        0.7582254409790039,
        -1.4392303228378296,
        0.09027444571256638,
        -1.3053447008132935,
        -0.10661444067955017,
        1.810970425605774,
        -0.5412248373031616,
        0.48405054211616516,
        -1.9612812995910645
      ],
      [
        -1.2353657484054565,
        0.06027107313275337,
        -0.7575478553771973,
        -0.30543825030326843,
        -0.6658316850662231,
        -1.0432658195495605,
        0.3466210961341858,
        1.426040530204773,
        0.7494899034500122,
        1.3873932361602783,
        0.48512107133865356,
        1.4632130861282349,
        -1.3989323377609253,
        1.1918983459472656,
        0.9375280737876892,
        0.05985318496823311
      ],
      [
        0.8585541844367981,
        -1.3975802659988403,
        -0.8888949155807495,
        -0.1701820194721222,
        -1.6674643754959106,
        0.7304638028144836,
        -1.2699365615844727,
        0.015975601971149445,
        1.4170180559158325,
        -0.2749331295490265,
        -1.4838775396347046,
        -0.7069180011749268,
        1.2521982192993164,
        -0.03610746189951897,
        0.7265113592147827,
        0.10818800330162048
      ],
      [
        -0.29013845324516296,
        -1.38936185836792,
        0.14408819377422333,
        -0.2697352170944214,
        0.43988552689552307,
        -2.7399535179138184,
        1.1804594993591309,
        0.794239342212677,
        -1.491161823272705,
        -0.2713504731655121,
        -1.6227611303329468,
        0.23474182188510895,
        -0.9359143972396851,
        0.3838777542114258,
        -0.2387014478445053,
        0.35646966099739075
      ],
      [
        -0.8112195134162903,
        0.21647267043590546,
        -0.24013207852840424,
        -0.2801620364189148,
        -0.6183105111122131,
        0.9621923565864563,
        1.4046213626861572,
        0.12264280021190643,
        0.1714278906583786,
        -0.38999488949775696,
        -0.22487995028495789,
        -0.17917408049106598,
        0.9895811676979065,
        0.16221210360527039,
        0.02957838959991932,
        -0.7168600559234619
      ],
      [
        0.9122797250747681,
        0.15392941236495972,
        -2.245577573776245,
        0.11759944260120392,
        1.963173508644104,
        0.923607349395752,
        0.6958881616592407,
        1.6914393901824951,
        -0.8103190660476685,
        -0.3463132381439209,
        0.803584098815918,
        -0.3736269772052765,
        0.6419691443443298,
        0.19503504037857056,
        -0.15900762379169464,
        0.06057385355234146
      ],
      [
        -0.0736347883939743,
        0.6138684153556824,
        -0.18756499886512756,
        -0.7383999824523926,
        0.14511226117610931,
        -0.8641673922538757,
        -0.4405369758605957,
        -0.9628512263298035,
        0.6368740797042847,
        -0.9202322363853455,
        0.16215254366397858,
        -0.5203189849853516,
        -0.13411803543567657,
        1.547752857208252,
        -0.130234956741333,
        -0.8824511170387268
      ],
      [
        0.8119773268699646,
        -0.8185462355613708,
        -0.11907246708869934,
        0.01830517128109932,
        1.7069952487945557,
        -0.6931586265563965,
        1.7290430068969727,
        0.20675015449523926,
        0.3188907206058502,
        -1.0780795812606812,
        -0.6790226101875305,
        -0.8639324307441711,
        -0.7314502596855164,
        -0.5471493601799011,
        -0.5515121221542358,
        0.8117716908454895
      ],
      [
        -1.601874828338623,
        -0.27903392910957336,
        0.8192934393882751,
        -1.4888776540756226,
        0.2745794653892517,
        0.8060232996940613,
        -0.9468721747398376,
        1.1577435731887817,
        -1.0724263191223145,
        -0.7608917355537415,
        1.2544595003128052,
        0.17859724164009094,
        0.7382810115814209,
        1.9112731218338013,
        -0.220814049243927,
        -0.9416462779045105
      ],
      [
        0.8251512050628662,
        0.4477975070476532,
        1.6422642469406128,
        -0.8963683247566223,
        -0.9800195097923279,
        -0.18502439558506012,
        -1.466299057006836,
        0.9740158915519714,
        0.07462586462497711,
        0.40944379568099976,
        -1.5041664838790894,
        -0.6804424524307251,
        -0.49196121096611023,
        -0.0004383055493235588,
        0.6335219144821167,
        -0.2933935523033142
      ],
      [
        0.9623196721076965,
        0.4085959792137146,
        -0.05911343917250633,
        1.6260151863098145,
        1.070957064628601,
        -1.5441560745239258,
        -0.3874257504940033,
        0.14887870848178864,
        -0.7255045771598816,
        -1.0608481168746948,
        -0.35633373260498047,
        1.0043392181396484,
        0.07125832885503769,
        -0.04805387184023857,
        0.5461483001708984,
        -1.5009894371032715
      ],
      [
        0.2386530488729477,
        0.5651333928108215,
        -0.0552247054874897,
        0.47049129009246826,
        0.8621420860290527,
        -1.1189314126968384,
        -1.0720655918121338,
        -1.0382541418075562,
        -1.5034863948822021,
        0.009525212459266186,
        0.38230371475219727,
        0.3920835554599762,
        -0.323360413312912,
        -1.6549774408340454,
        0.29105353355407715,
        0.707649290561676
      ],
      [
        -0.8867115378379822,
        -0.7222651839256287,
        -1.668357014656067,
        -1.2442439794540405,
        0.6298823952674866,
        0.35593709349632263,
        0.536871612071991,
        1.053907036781311,
        1.3736307621002197,
        -3.265800952911377,
        0.7280333042144775,
        -1.0996698141098022,
        -1.7352842092514038,
        -0.40446463227272034,
        0.5053301453590393,
        1.242159128189087
      ],
      [
        0.9857552647590637,
        -0.34728309512138367,
        0.9115069508552551,
        -0.8598486185073853,
        0.44454601407051086,
        -0.8600724935531616,
        1.3222423791885376,
        1.3982709646224976,
        0.24635492265224457,
        1.1349232196807861,
        1.2193008661270142,
        -1.1331589221954346,
        0.9065188765525818,
        -0.006182087119668722,
        1.0058091878890991,
        0.26687002182006836
      ],
      [
        -0.5501169562339783,
        0.20886670053005219,
        0.479646772146225,
        1.553497552871704,
        0.6696996688842773,
        0.20451393723487854,
        -0.7112151384353638,
        -0.30691641569137573,
        -0.9987594485282898,
        1.9904189109802246,
        -0.6506010293960571,
        -0.9919182658195496,
        1.1260520219802856,
        0.9700459837913513,
        -2.0378456115722656,
        -0.5027773976325989
      ],
      [
        0.017528895288705826,
        1.1728219985961914,
        1.0574790239334106,
        -0.13428127765655518,
        -1.4037044048309326,
        0.5228332877159119,
        -0.0731939896941185,
        0.6706007719039917,
        2.615086078643799,
        1.0496047735214233,
        0.2678481340408325,
        -0.10581282526254654,
        0.3468596339225769,
        -0.518169641494751,
        0.8762656450271606,
        -2.1127281188964844
      ]
    ],
    "sequence_encoder.encoder.weight_ih_l0": [
      [
        -0.07280037552118301,
        0.012974251993000507,
        -0.2711704671382904,
        -0.0327187143266201,
        0.07153407484292984,
        0.119899220764637,
        0.13044777512550354,
        -0.07557081431150436,
        0.01667270064353943,
        0.05647091567516327,
        -0.06015915423631668,
        -0.024699537083506584,
        0.1932407021522522,
        -0.10752301663160324,
        0.17470911145210266,
        -0.17600049078464508
      ],
      [
        0.1254875361919403,
        -0.07498783618211746,
        -0.09609585255384445,
        -0.05837637558579445,
        0.08421690762042999,
        -0.2354373335838318,
        -0.10700084269046783,
        0.08564959466457367,
        -0.08249243348836899,
        -0.040003176778554916,
        -0.02356063388288021,
        0.13141760230064392,
        0.009007381275296211,
        -0.16366687417030334,
        0.1119627058506012,
        0.14201360940933228
      ],
      [
        -0.03765584155917168,
        0.16187840700149536,
        0.12241899967193604,
        0.1586887538433075,
        0.188093900680542,
        -0.1323384940624237,
        -0.0901373103260994,
        -0.001023865770548582,
        -0.14802250266075134,
        0.10810230672359467,
        -0.13182464241981506,
        0.01222115010023117,
        -0.14513848721981049,
        -0.12521004676818848,
        0.1519414484500885,
        -0.2073736935853958
      ],
      [
        0.194565549492836,
        -0.03626461699604988,
        -0.09292681515216827,
        -0.1540578454732895,
        0.07526510208845139,
        0.08903775364160538,
        -0.12555599212646484,
        0.21312153339385986,
        -0.2011522352695465,
        0.1969335973262787,
        -0.05968809127807617,
        -0.04472829028964043,
        0.19519509375095367,
        0.06244383752346039,
        -0.023286283016204834,
        0.20834264159202576
      ],
      [
        0.19618500769138336,
        0.06664812564849854,
        0.23506540060043335,
        -0.06798960268497467,
        0.11142177134752274,
        -0.029087290167808533,
        0.06874207407236099,
        0.06362365931272507,
        0.20988988876342773,
        0.15106628835201263,
        0.058809369802474976,
        -0.07592906057834625,
        0.1371030956506729,
        -0.25309836864471436,
        -0.04907548055052757,
        -0.08568815886974335
      ],
      [
        0.2486373633146286,
        0.055719487369060516,
        0.049845337867736816,
        -0.3618541359901428,
        -0.20947739481925964,
        0.039715785533189774,
        -0.003751003183424473,
        0.08469002693891525,
        0.102458156645298,
        0.3495025932788849,
        0.2147648185491562,
        0.27688366174697876,
        0.13454030454158783,
        -0.08913598209619522,
        0.041264213621616364,
        0.21391382813453674
      ],
      [
        0.15401512384414673,
        0.1563316285610199,
        0.04563639312982559,
        -0.006475143600255251,
        0.15751853585243225,
        -0.016461994498968124,
        0.0805884376168251,
        0.11285197734832764,
        -0.2348056435585022,
        -0.19256992638111115,
        0.035796068608760834,
        -0.010472513735294342,
        0.039534542709589005,
        -0.13772974908351898,
        0.13318805396556854,
        0.01749594137072563
      ],
      [
        0.06809601187705994,
        -0.07415416836738586,
        -0.11201071739196777,
        -0.08449096232652664,
        -0.20394256711006165,
        -0.24872326850891113,
        -0.11598075926303864,
        0.011623576283454895,
        -0.03500579297542572,
        0.0092603275552392,
        -0.12378629297018051,
        0.1174391508102417,
        0.14608430862426758,
        0.11703076213598251,
        0.17041979730129242,
        0.029112493619322777
      ],
      [
        -0.1806802749633789,
        0.2334190011024475,
        -0.08471738547086716,
        0.2485436201095581,
        0.08323213458061218,
        -0.06976842880249023,
        0.0547749325633049,
        0.12312620133161545,
        0.03441746532917023,
        -0.08558664470911026,
        -0.16997849941253662,
        0.24558907747268677,
        -0.08998937904834747,
        -0.051441069692373276,
        0.10403739660978317,
        0.019253792241215706
      ],
      [
        -0.19316419959068298,
        -0.24767616391181946,
        -0.0912860557436943,
        0.25624245405197144,
        -0.06447411328554153,
        0.017473606392741203,
        0.18096376955509186,
        -0.16021475195884705,
        0.14260952174663544,
        0.009465326555073261,
        -0.2609114646911621,
        0.07655374705791473,
        0.24563691020011902,
        -0.0952015370130539,
        -0.025852130725979805,
        -0.12736104428768158
      ],
      [
        0.23516730964183807,
        0.0979057028889656,
        -0.1231246069073677,
        0.1657981425523758,
        -0.017881091684103012,
        -0.1257065087556839,
        -0.17774488031864166,
        -0.023765649646520615,
        0.15366409718990326,
        0.025418343022465706,
        0.06353868544101715,
        0.0912780612707138,
        0.3122057616710663,
        0.007981152273714542,
        -0.1764175295829773,
        -0.1671828031539917
      ],
      [
        -0.03146601468324661,
        0.030925629660487175,
        0.0008900435641407967,
        0.15142332017421722,
        -0.03771805018186569,
        0.105637326836586,
        -0.17644476890563965,
        0.16031719744205475,
        0.017801225185394287,
        -0.07955828309059143,
        -0.26622599363327026,
        0.08389371633529663,
        0.19652213156223297,
        -0.1593683511018753,
        0.0027732497546821833,
        -0.35721728205680847
      ],
      [
        0.06655074656009674,
        -0.23146991431713104,
        0.014364883303642273,
        -0.14293214678764343,
        -0.17501872777938843,
        -0.05100450664758682,
        0.1352849006652832,
        -0.16317032277584076,
        -0.11799260973930359,
        0.2815595269203186,
        -0.1899065226316452,
        -0.1774122267961502,
        0.28002139925956726,
        -0.14713498950004578,
        0.10431601852178574,
        0.14049683511257172
      ],
      [
        -0.004931861534714699,
        0.18488873541355133,
        0.014054198749363422,
        -0.08775307238101959,
        0.09361040592193604,
        -0.07367757707834244,
        -0.16842584311962128,
        0.14235830307006836,
        -0.1472935825586319,
        -0.006644673179835081,
        -0.001475594937801361,
        -0.16234056651592255,
        -0.006383100524544716,
        -0.1097395122051239,
        0.031057916581630707,
        0.0527973510324955
      ],
      [
        0.027291031554341316,
        -0.03424578532576561,
        -0.19414429366588593,
        0.4025118947029114,
        -0.11635176092386246,
        -0.061467062681913376,
        -0.026209497824311256,
        -0.046227630227804184,
        0.052317406982183456,
        0.0802970826625824,
        -0.19904157519340515,
        0.12784689664840698,
        -0.16943563520908356,
        0.011428390629589558,
        0.057952187955379486,
        -0.13028357923030853
      ],
      [
        -0.1653350442647934,
        -0.045938488095998764,
        -0.22179466485977173,
        0.06440263241529465,
        0.16835623979568481,
        0.021658221259713173,
        0.01815367490053177,
        -0.18641425669193268,
        -0.13314278423786163,
        0.06010923534631729,
        0.058401793241500854,
        0.20198707282543182,
        0.23907668888568878,
        0.049958668649196625,
        -0.19951596856117249,
        -0.32774850726127625
      ],
      [
        -0.006763373967260122,
        -0.030577950179576874,
        -0.02397535741329193,
        -0.16738101840019226,
        0.015261352993547916,
        -0.19014543294906616,
        0.14896613359451294,
        0.1612156331539154,
        -0.2349279224872589,
        -0.05444248020648956,
        0.0841238796710968,
        0.12132533639669418,
        -0.14552029967308044,
        -0.0981241911649704,
        0.16445136070251465,
        -0.11557291448116302
      ],
      [
        0.03406086191534996,
        0.15327933430671692,
        -0.27970439195632935,
        0.022262003272771835,
        0.018144678324460983,
        0.14292481541633606,
        -0.07536694407463074,
        0.17765672504901886,
        -0.02348683774471283,
        0.0677071288228035,
        0.09328845888376236,
        0.0948103740811348,
        0.20537219941616058,
        -0.021188465878367424,
        -0.044345609843730927,
        0.1960643082857132
      ],
      [
        -0.020013608038425446,
        0.0632898136973381,
        0.03775211423635483,
        0.1883743554353714,
        -0.14397861063480377,
        0.04574348032474518,
        -0.07747156918048859,
        0.0037642791867256165,
        -0.11771292239427567,
        -0.1241166815161705,
        0.06751537322998047,
        -0.10655798017978668,
        -0.011950196698307991,
        0.0014691137475892901,
        0.1021757498383522,
        -0.03470916673541069
      ],
      [
        -0.013635929673910141,
        0.09319404512643814,
        -0.09648960083723068,
        0.3194746673107147,
        -0.1020917296409607,
        0.18129682540893555,
        -0.08593585342168808,
        -0.06594519317150116,
        -0.22677290439605713,
        -0.01896124705672264,
        0.07117880135774612,
        -0.025365101173520088,
        0.24232110381126404,
        -0.24184642732143402,
        0.20689041912555695,
        -0.2759849429130554
      ],
      [
        -0.08325834572315216,
        -0.011052755638957024,
        -0.01717471331357956,
        0.1533396691083908,
        0.10822261869907379,
        -0.06662385165691376,
        -0.03259734436869621,
        0.15541686117649078,
        0.0128492321819067,
        -0.13924328982830048,
        0.0725654661655426,
        0.02359073795378208,
        0.12599532306194305,
        -0.13894808292388916,
        0.2056206613779068,
        -0.2195941060781479
      ],
      [
        0.0186508446931839,
        0.1990405023097992,
        -0.04901861771941185,
        0.01712118089199066,
        0.15654470026493073,
        -0.21514485776424408,
        -0.16987593472003937,
        0.22228312492370605,
        0.04443854093551636,
        -0.07507536560297012,
        0.04718686267733574,
        -0.0706787258386612,
        0.11693726480007172,
        -0.06251425296068192,
        0.12774530053138733,
        0.1513272225856781
      ],
      [
        -0.09370725601911545,
        -0.0347224585711956,
        0.06414376944303513,
        0.08826348185539246,
        -0.09609899669885635,
        -0.13832566142082214,
        0.137513667345047,
        -0.02561410330235958,
        0.030370252206921577,
        -0.019255012273788452,
        -0.03681319206953049,
        -0.04529095068573952,
        0.009390663355588913,
        -0.162895068526268,
        -0.1001538410782814,
        0.01216893084347248
      ],
      [
        -0.2899772822856903,
        0.06654361635446548,
        -0.13071280717849731,
        0.17587131261825562,
        0.061833422631025314,
        -0.04443817585706711,
        -0.14086765050888062,
        0.14180229604244232,
        -0.0424676239490509,
        0.036901336163282394,
        0.02024971693754196,
        0.0010294807143509388,
        -0.12127596139907837,
        -0.08711254596710205,
        -0.055391114205121994,
        -0.13395178318023682
      ],
      [
        0.03360415995121002,
        0.07215055078268051,
        0.13725689053535461,
        -0.05625341832637787,
        0.009746348485350609,
        -0.044975873082876205,
        0.1862042248249054,
        -0.11771785467863083,
        -0.14373813569545746,
        0.15970195829868317,
        -0.08857482671737671,
        -0.19448250532150269,
        0.007903815247118473,
        0.08570758253335953,
        -0.17329955101013184,
        0.037222590297460556
      ],
      [
        -0.24246390163898468,
        0.1284254491329193,
        0.17121075093746185,
        -0.05784443020820618,
        0.00865968968719244,
        -0.10803505778312683,
        -0.0015971519751474261,
        0.020164044573903084,
        0.23482191562652588,
        0.20224295556545258,
        0.23670782148838043,
        0.11447378247976303,
        -0.16733300685882568,
        0.21593748033046722,
        0.18345697224140167,
        -0.04199552163481712
      ],
      [
        -0.07164525240659714,
        0.1433027684688568,
        -0.1209542527794838,
        0.04717373102903366,
        -0.2314378172159195,
        -0.1356724351644516,
        -0.1476912498474121,
        0.09164265543222427,
        0.1045021116733551,
        0.25253674387931824,
        -0.012707571499049664,
        0.014214255847036839,
        0.06255051493644714,
        0.037379320710897446,
        -0.019160669296979904,
        -0.16825193166732788
      ],
      [
        0.02369215339422226,
        -0.1389310657978058,
        0.20777355134487152,
        -0.029082978144288063,
        -0.20204295217990875,
        -0.21226748824119568,
        0.030362874269485474,
        -0.0034581918735057116,
        0.21773692965507507,
        -0.1003233939409256,
        -0.12707358598709106,
        -0.10081339627504349,
        0.04533568397164345,
        -0.3052533268928528,
        0.17783606052398682,
        -0.11862149089574814
      ],
      [
        -0.02005326934158802,
        -0.01422468014061451,
        -0.19710877537727356,
        0.12789402902126312,
        -0.062151264399290085,
        0.06811032444238663,
        0.011625189334154129,
        0.054835304617881775,
        -0.14099596440792084,
        0.07797727733850479,
        -0.11251150071620941,
        -0.046187080442905426,
        0.1975381225347519,
        0.02059193141758442,
        0.048189111053943634,
        -0.1011422798037529
      ],
      [
        0.07794726639986038,
        -0.039778780192136765,
        0.03978573903441429,
        0.31403496861457825,
        -0.009689562022686005,
        -0.09227480739355087,
        0.11837605386972427,
        0.08345628529787064,
        -0.28948619961738586,
        -0.08243533223867416,
        -0.23512932658195496,
        0.20059463381767273,
        0.05712021142244339,
        0.11833084374666214,
        -0.17393897473812103,
        -0.01925807259976864
      ],
      [
        -0.2033786177635193,
        0.011934403330087662,
        -0.12350994348526001,
        0.007526926230639219,
        0.26010745763778687,
        -0.11135608702898026,
        0.11604548990726471,
        -0.01892155595123768,
        0.06360682845115662,
        -0.26001405715942383,
        -0.0753478929400444,
        -0.062317345291376114,
        0.06270934641361237,
        0.018510617315769196,
        -0.09710349887609482,
        -0.19533070921897888
      ],
      [
        0.1496816724538803,
        -0.17596140503883362,
        -0.13206684589385986,
        0.16900695860385895,
        0.11837977916002274,
        -0.10570584237575531,
        -0.10606656223535538,
        -0.0712825134396553,
        -0.22330927848815918,
        -0.23484233021736145,
        0.07489975541830063,
        -0.07391801476478577,
        0.10030973702669144,
        -0.1945061832666397,
        0.005389601923525333,
        0.16524916887283325
      ],
      [
        0.10368168354034424,
        -0.07981991767883301,
        0.12103061378002167,
        0.08264447748661041,
        -0.13379715383052826,
        -0.04805975779891014,
        -0.17227838933467865,
        0.08851282298564911,
        0.1079043298959732,
        0.10642972588539124,
        -0.20005376636981964,
        -0.0781581699848175,
        -0.04008418694138527,
        -0.10638481378555298,
        -0.23176126182079315,
        0.029015110805630684
      ],
      [
        0.11433576047420502,
        -0.007988711819052696,
        0.058132611215114594,
        -0.12620685994625092,
        0.09028422087430954,
        0.033808816224336624,
        -0.055756717920303345,
        -0.10744373500347137,
        0.03392468020319939,
        -0.011666162870824337,
        0.1409756988286972,
        -0.011472899466753006,
        0.02830609679222107,
        -0.04600061476230621,
        -0.08167911320924759,
        -0.04785005748271942
      ],
      [
        -0.017628982663154602,
        0.1680563986301422,
        0.1450735628604889,
        0.12264969944953918,
        -0.007687469478696585,
        -0.04355766251683235,
        -0.16329151391983032,
        0.027183299884200096,
        -0.02326708845794201,
        -0.13434013724327087,
        -0.07529391348361969,
        0.117020383477211,
        0.09644384682178497,
        0.028831426054239273,
        -0.1656303107738495,
        -0.1457074135541916
      ],
      [
        0.231353297829628,
        -0.20922909677028656,
        0.12573577463626862,
        -0.012214167974889278,
        0.020450597628951073,
        -0.2288147360086441,
        0.1347220093011856,
        -0.042389947921037674,
        -0.08720129728317261,
        -0.23193791508674622,
        -0.1827915459871292,
        -0.0015425437595695257,
        0.17496325075626373,
        -0.27218884229660034,
        -0.0535467192530632,
        -0.09546907991170883
      ],
      [
        0.10130113363265991,
        0.14417926967144012,
        -0.16756567358970642,
        0.1430128961801529,
        0.1735110729932785,
        0.004045835696160793,
        0.05534704402089119,
        0.1254957914352417,
        -0.04668276384472847,
        0.13291828334331512,
        -0.13732320070266724,
        0.11563443392515182,
        -0.037035029381513596,
        0.054130733013153076,
        -0.09464758634567261,
        -0.07352841645479202
      ],
      [
        0.07243712246417999,
        -0.1969640851020813,
        0.17090554535388947,
        0.011293990537524223,
        -0.14393125474452972,
        -0.12481898069381714,
        0.17111052572727203,
        0.1333753913640976,
        0.010725090280175209,
        -0.014873567037284374,
        -0.08205324411392212,
        -0.09476140141487122,
        -0.15753698348999023,
        -0.13140368461608887,
        -0.12772038578987122,
        0.13607534766197205
      ],
      [
        0.031067265197634697,
        0.04755948483943939,
        -0.12615935504436493,
        -0.04633209481835365,
        0.16581621766090393,
        -0.05705607309937477,
        -0.13804112374782562,
        -0.23497696220874786,
        -0.018477249890565872,
        0.16023308038711548,
        0.06695031374692917,
        0.07269509136676788,
        0.0339084155857563,
        -0.03098660707473755,
        -0.16099666059017181,
        0.19904427230358124
      ],
      [
        0.10933831334114075,
        0.12019481509923935,
        0.04582596197724342,
        0.09991002082824707,
        -0.0837867259979248,
        -0.08545761555433273,
        0.06285679340362549,
        0.010616956278681755,
        0.03272605314850807,
        -0.028467707335948944,
        -0.16156864166259766,
        -0.1737436056137085,
        0.1661975383758545,
        0.11547587811946869,
        0.06302420049905777,
        -0.06439991295337677
      ],
      [
        0.27555134892463684,
        0.009999820962548256,
        -0.16400957107543945,
        -0.0883927047252655,
        0.0008888477459549904,
        -0.08298587054014206,
        -0.1165967583656311,
        0.07973165065050125,
        0.020728295668959618,
        -0.1512439250946045,
        0.05973324552178383,
        -0.12157703191041946,
        -0.0016581470845267177,
        -0.19554752111434937,
        -0.1078626811504364,
        0.05808944255113602
      ],
      [
        0.12575110793113708,
        0.1590498834848404,
        -0.0066890050657093525,
        -0.04159599542617798,
        -0.14207863807678223,
        -0.1907169371843338,
        -0.12671533226966858,
        -0.20854046940803528,
        0.11429627239704132,
        0.06013760715723038,
        0.09533285349607468,
        0.007171364035457373,
        -0.13421222567558289,
        0.05995309352874756,
        -0.02748381532728672,
        -0.16773928701877594
      ],
      [
        -0.2639087438583374,
        0.24755226075649261,
        0.23428146541118622,
        0.08090223371982574,
        0.06705701351165771,
        0.2960049510002136,
        0.15871967375278473,
        -0.11672667413949966,
        0.19101674854755402,
        0.001550071407109499,
        -0.19152794778347015,
        -0.11346999555826187,
        -0.11752080917358398,
        -0.0012767792213708162,
        0.10962820053100586,
        -0.16435472667217255
      ],
      [
        -0.21360135078430176,
        0.026035327464342117,
        -0.10022204369306564,
        0.08147965371608734,
        0.08233639597892761,
        -0.09870173037052155,
        -0.027885988354682922,
        0.06001296266913414,
        0.0376116968691349,
        -0.03634025156497955,
        0.08459009975194931,
        0.20626181364059448,
        0.06720993667840958,
        0.09466240555047989,
        0.010572707280516624,
        -0.06625378876924515
      ],
      [
        -0.1378011852502823,
        0.18084317445755005,
        -0.012098732404410839,
        -0.07718144357204437,
        0.09242738783359528,
        0.1366218775510788,
        0.0807717815041542,
        -0.15891869366168976,
        0.1799897998571396,
        -0.10783500224351883,
        -0.21573951840400696,
        -0.03217370808124542,
        0.15193024277687073,
        -0.07085103541612625,
        0.09061185270547867,
        -0.17523665726184845
      ],
      [
        -0.23286579549312592,
        -0.04211147502064705,
        -0.04879526048898697,
        0.1921893060207367,
        -0.12947481870651245,
        -0.2271229326725006,
        0.11171037703752518,
        -0.013361625373363495,
        0.02557518146932125,
        -0.19459602236747742,
        -0.19881780445575714,
        0.19819316267967224,
        -0.12257720530033112,
        0.06744655966758728,
        0.1295093446969986,
        -0.2815645933151245
      ],
      [
        0.10655799508094788,
        -0.21000468730926514,
        -0.08770779520273209,
        -0.036242131143808365,
        0.24656999111175537,
        -0.225025475025177,
        0.019725341349840164,
        0.10070314258337021,
        -0.16505494713783264,
        -0.03943903371691704,
        0.153944194316864,
        -0.12753108143806458,
        -0.1383361667394638,
        -0.13462874293327332,
        -0.26177358627319336,
        0.15461362898349762
      ],
      [
        0.13895368576049805,
        -0.09841877967119217,
        -0.09873071312904358,
        0.015484411269426346,
        0.1565658152103424,
        0.11162150651216507,
        -0.1117786169052124,
        0.21713583171367645,
        -0.12827068567276,
        -0.06480268388986588,
        0.11312044411897659,
        0.10284850746393204,
        -0.06723659485578537,
        0.10856308788061142,
        0.11027713865041733,
        0.14831729233264923
      ],
      [
        0.004041833803057671,
        0.1867961436510086,
        0.07656366378068924,
        0.029759002849459648,
        -0.15121755003929138,
        0.018531419336795807,
        -0.14317412674427032,
        -0.15341781079769135,
        -0.05063958093523979,
        0.05243844538927078,
        -0.057559046894311905,
        0.05046490952372551,
        -0.025960825383663177,
        0.08458127826452255,
        0.08193988353013992,
        -0.25881636142730713
      ],
      [
        0.02479841560125351,
        0.11701321601867676,
        0.039137616753578186,
        0.23639947175979614,
        -0.1899881213903427,
        -0.1477474868297577,
        0.023766428232192993,
        0.1372399628162384,
        0.0005481965490616858,
        -0.10252449661493301,
        -0.2787114977836609,
        -0.19858266413211823,
        0.24675561487674713,
        -0.1683909147977829,
        -0.04962177947163582,
        0.06778719276189804
      ],
      [
        0.045558858662843704,
        0.09620640426874161,
        -0.06815880537033081,
        -0.07370343804359436,
        -0.09538479149341583,
        -0.011090253479778767,
        0.024906042963266373,
        0.019206922501325607,
        0.03598695620894432,
        -0.03117411583662033,
        0.1351577490568161,
        0.18649257719516754,
        -0.11364930123090744,
        0.02257179282605648,
        -0.10561183094978333,
        -0.0005977568216621876
      ],
      [
        0.09212244302034378,
        0.05967499315738678,
        -0.2314351350069046,
        0.372740238904953,
        0.06315099447965622,
        -0.20254042744636536,
        0.17681816220283508,
        0.10436083376407623,
        -0.04432850331068039,
        0.009650025516748428,
        -0.12236545234918594,
        0.057856813073158264,
        -0.2260102778673172,
        -0.16674688458442688,
        0.13152223825454712,
        -0.21482999622821808
      ],
      [
        -0.1747976541519165,
        0.019282883033156395,
        0.017186980694532394,
        -0.21793289482593536,
        0.10369054228067398,
        -0.14687581360340118,
        0.02213764376938343,
        -0.19111067056655884,
        -0.15250548720359802,
        0.217428058385849,
        -0.09275957196950912,
        0.04472130537033081,
        -0.014046397060155869,
        0.03574773669242859,
        -0.20654833316802979,
        -0.1355603039264679
      ],
      [
        -0.015116306953132153,
        0.039227522909641266,
        0.1338222324848175,
        0.13981197774410248,
        0.07390730828046799,
        -0.2550349831581116,
        0.09058990329504013,
        0.09127621352672577,
        -0.0826452299952507,
        0.024274110794067383,
        -0.06280073523521423,
        0.10260222107172012,
        0.06684642285108566,
        0.07078787684440613,
        0.2535199820995331,
        -0.05567845329642296
      ],
      [
        0.07307019829750061,
        0.031023262068629265,
        -0.17857690155506134,
        0.033885467797517776,
        0.09271368384361267,
        0.1649114489555359,
        -0.21376730501651764,
        0.11014751344919205,
        0.021270373836159706,
        0.11322112381458282,
        0.08288490772247314,
        0.1173427551984787,
        0.07733156532049179,
        0.03069596365094185,
        0.24917365610599518,
        -0.0010410171234980226
      ],
      [
        -0.25307583808898926,
        0.18704049289226532,
        0.1877066195011139,
        -0.1929531842470169,
        0.037764355540275574,
        -0.04345295950770378,
        -0.12019100040197372,
        -0.14924637973308563,
        -0.044231582432985306,
        -0.005260663107037544,
        0.17881916463375092,
        0.13327378034591675,
        -0.14158156514167786,
        0.1673130840063095,
        0.16489334404468536,
        0.06968577951192856
      ],
      [
        -0.09662199765443802,
        -0.04904239997267723,
        -0.12720221281051636,
        -0.009842300787568092,
        -0.007300188299268484,
        -0.01855219528079033,
        0.05086338892579079,
        0.1241431012749672,
        0.028353730216622353,
        0.12515994906425476,
        -0.021778887137770653,
        -0.0164613276720047,
        0.05700318142771721,
        -0.13644835352897644,
        -0.0043917312286794186,
        0.1057308092713356
      ],
      [
        -0.026835838332772255,
        0.08909033983945847,
        0.008778932504355907,
        0.0844709500670433,
        0.09711816906929016,
        -0.19685114920139313,
        0.18796278536319733,
        -0.026564406231045723,
        0.08598737418651581,
        -0.111704021692276,
        -0.1784772127866745,
        -0.06832113116979599,
        0.06626813113689423,
        -0.08907435089349747,
        0.22308646142482758,
        -0.12242908030748367
      ],
      [
        0.1905290186405182,
        0.08352074027061462,
        -0.0254212636500597,
        0.1287728250026703,
        0.01703951507806778,
        0.12029585987329483,
        0.22717557847499847,
        -0.11630924046039581,
        0.02496081218123436,
        -0.20237873494625092,
        0.16249966621398926,
        0.07573522627353668,
        -0.018929503858089447,
        -0.12234439700841904,
        -0.12370608001947403,
        -0.16276639699935913
      ],
      [
        -0.14163771271705627,
        -0.0521651916205883,
        0.010663741268217564,
        0.05227171629667282,
        0.05189825966954231,
        0.2348005473613739,
        -0.016940142959356308,
        0.011776292696595192,
        0.008876867592334747,
        0.1176096573472023,
        0.1356896311044693,
        0.1833941638469696,
        -0.15945717692375183,
        -0.004207019228488207,
        0.1290118396282196,
        -0.2947314381599426
      ],
      [
        0.008544184267520905,
        0.2257484644651413,
        -0.00996769405901432,
        -0.16839344799518585,
        0.02263384312391281,
        -0.04763178154826164,
        -0.040091607719659805,
        0.15922024846076965,
        -0.1587810218334198,
        0.1629066914319992,
        0.23120112717151642,
        0.17610293626785278,
        -0.11653164774179459,
        -0.1334700733423233,
        -0.003622672986239195,
        -0.17289680242538452
      ],
      [
        -0.12914042174816132,
        0.17243149876594543,
        0.15491537749767303,
        0.016925420612096786,
        -0.06465181708335876,
        0.13448916375637054,
        0.25297293066978455,
        0.13306988775730133,
        -0.08982335776090622,
        -0.010181558318436146,
        -0.07428436726331711,
        0.2137209177017212,
        -0.2095901519060135,
        0.09955886751413345,
        0.02402460016310215,
        -0.024387560784816742
      ],
      [
        0.0955774262547493,
        -0.11746876686811447,
        -0.07441249489784241,
        -0.073492132127285,
        -0.04025096446275711,
        -0.2496422976255417,
        -0.06327159702777863,
        -0.12242820113897324,
        -0.15562036633491516,
        0.03815239295363426,
        0.23092752695083618,
        -0.07506991922855377,
        -0.024226034060120583,
        0.011712704785168171,
        0.018028756603598595,
        -0.06532558053731918
      ],
      [
        -0.22112996876239777,
        -0.03207651525735855,
        -0.09937047958374023,
        0.12660224735736847,
        -0.12024322897195816,
        0.046909771859645844,
        -0.009110335260629654,
        0.08049027621746063,
        -0.09041670709848404,
        0.05063363537192345,
        0.15137512981891632,
        0.17511168122291565,
        -0.025513429194688797,
        0.19817736744880676,
        -0.02303532138466835,
        0.0019319099374115467
      ],
      [
        0.0785122960805893,
        -0.2152879238128662,
        -0.11664266884326935,
        0.17665797472000122,
        -0.03651607409119606,
        0.02594268135726452,
        0.015849826857447624,
        -0.06696002930402756,
        0.16786980628967285,
        0.07119373977184296,
        -0.08173926174640656,
        0.196310892701149,
        0.05354791134595871,
        0.08836079388856888,
        0.03893788158893585,
        0.05132367089390755
      ],
      [
        0.2712429463863373,
        -0.003456820035353303,
        -0.07148127257823944,
        -0.08712112158536911,
        -0.09372036159038544,
        -0.059228718280792236,
        0.0784856304526329,
        -0.09005220979452133,
        -0.0802011787891388,
        -0.1383884847164154,
        0.11149990558624268,
        0.012032246217131615,
        0.10578430444002151,
        -0.16746050119400024,
        -0.15829646587371826,
        -0.003938857465982437
      ],
      [
        -0.032054610550403595,
        -0.1432621330022812,
        -0.03064069338142872,
        0.2502875328063965,
        -0.05747143179178238,
        -0.0538259819149971,
        -0.10280458629131317,
        -0.20955617725849152,
        0.13668836653232574,
        0.08185523003339767,
        -0.015530189499258995,
        0.1906331479549408,
        0.013075048103928566,
        -0.15089958906173706,
        0.10674618184566498,
        0.1952265202999115
      ],
      [
        -0.12242121994495392,
        0.23421980440616608,
        0.0725998729467392,
        0.0831490084528923,
        -0.09696440398693085,
        0.15228787064552307,
        -0.09031569957733154,
        -0.15760694444179535,
        0.13977870345115662,
        -0.03340834006667137,
        0.02425968460738659,
        -0.04455374926328659,
        0.12290867418050766,
        0.025857944041490555,
        -0.0577787384390831,
        0.18242458999156952
      ],
      [
        0.14534777402877808,
        -0.05912911146879196,
        0.07248090207576752,
        -0.050030313432216644,
        -0.048213519155979156,
        -0.20529133081436157,
        -0.049945563077926636,
        0.08836633712053299,
        -0.1407681405544281,
        0.02061932347714901,
        -0.001025740522891283,
        0.0607440248131752,
        0.012350133620202541,
        0.04810520261526108,
        0.13803130388259888,
        0.023595351725816727
      ],
      [
        -0.08222293853759766,
        -0.04404652491211891,
        -0.031425535678863525,
        0.1852402687072754,
        -0.12993748486042023,
        -0.09864934533834457,
        -0.14745981991291046,
        0.03290329501032829,
        -0.06535407900810242,
        0.05000574514269829,
        -0.00927651859819889,
        0.05117977783083916,
        0.08159321546554565,
        -0.12290262430906296,
        0.1378478705883026,
        -0.16261371970176697
      ],
      [
        0.14850576221942902,
        -0.07547832280397415,
        0.09760329127311707,
        0.17364203929901123,
        0.05846521258354187,
        -0.022668613120913506,
        -0.023756036534905434,
        -0.1832091212272644,
        -0.014934075064957142,
        0.1327461451292038,
        0.09960347414016724,
        0.13710668683052063,
        -0.05262146517634392,
        0.1841270476579666,
        -0.18701709806919098,
        0.008803249336779118
      ],
      [
        -0.17674829065799713,
        -0.1505991369485855,
        -0.04469873383641243,
        0.05047179386019707,
        -0.06644131988286972,
        -0.04590823873877525,
        -0.029363974928855896,
        -0.012396290898323059,
        -0.003545147366821766,
        -0.11258656531572342,
        0.0867895856499672,
        0.021500760689377785,
        -0.14558562636375427,
        0.1949830800294876,
        0.1312212347984314,
        0.05121264234185219
      ],
      [
        -0.1298060268163681,
        -0.17724864184856415,
        -0.04630686342716217,
        0.0872415080666542,
        0.08660660684108734,
        -0.14298872649669647,
        -0.006624887697398663,
        0.022063396871089935,
        -0.1683899611234665,
        0.07534022629261017,
        -0.1261960119009018,
        -0.22552357614040375,
        -0.07739372551441193,
        0.02984452061355114,
        0.07962917536497116,
        0.03657270222902298
      ],
      [
        0.17158843576908112,
        -0.15607191622257233,
        0.044666700065135956,
        0.07599113881587982,
        0.10343454033136368,
        0.1468643993139267,
        -0.006243689451366663,
        0.10661937296390533,
        -0.0748329758644104,
        0.09437738358974457,
        0.16743755340576172,
        0.12247397005558014,
        0.11601195484399796,
        -0.15806633234024048,
        0.028600342571735382,
        -0.05435153469443321
      ],
      [
        0.07660766690969467,
        -0.028318701311945915,
        -0.15286247432231903,
        0.17015953361988068,
        0.018620911985635757,
        -0.019970502704381943,
        0.0004280142020434141,
        -0.16371051967144012,
        -0.20056480169296265,
        -0.1770768016576767,
        -0.18106848001480103,
        -0.05694765970110893,
        0.0751442164182663,
        0.016969088464975357,
        0.024631021544337273,
        -0.11436626315116882
      ],
      [
        0.07793498039245605,
        -0.13262078166007996,
        0.20323428511619568,
        0.09864164143800735,
        0.008014154620468616,
        -0.1454584002494812,
        0.1394980102777481,
        0.14205066859722137,
        0.0953308641910553,
        -0.08989778161048889,
        -0.007778319995850325,
        -0.09208755195140839,
        -0.04649623855948448,
        -0.1370849609375,
        0.1430782824754715,
        0.2227344959974289
      ],
      [
        -0.12404713779687881,
        -0.06024117022752762,
        -0.07037336379289627,
        -0.2525787055492401,
        0.10707686841487885,
        0.12037788331508636,
        0.21499542891979218,
        0.04635656252503395,
        0.01077837310731411,
        -0.08664915710687637,
        -0.06793422996997833,
        -0.16611602902412415,
        0.08038376271724701,
        0.05944090336561203,
        -0.06611847132444382,
        -0.04295160248875618
      ],
      [
        0.00855882279574871,
        0.2530243396759033,
        -0.004650854039937258,
        -0.1768408566713333,
        -0.049162112176418304,
        -0.03132360801100731,
        0.1189127042889595,
        0.038512591272592545,
        0.1653183549642563,
        -0.007599901873618364,
        0.23148930072784424,
        0.13894572854042053,
        0.03538986295461655,
        -0.11702150851488113,
        0.053763099014759064,
        0.1426980048418045
      ],
      [
        -0.13371147215366364,
        -0.20863577723503113,
        0.15313006937503815,
        -0.18909381330013275,
        0.11809604614973068,
        0.2172446995973587,
        0.2423264980316162,
        -0.1650126725435257,
        0.14108024537563324,
        -0.13045300543308258,
        0.07462869584560394,
        -0.24297863245010376,
        0.027431271970272064,
        0.07381297647953033,
        0.05980713292956352,
        -0.12846583127975464
      ],
      [
        -0.12149416655302048,
        0.13324159383773804,
        -0.13088342547416687,
        -0.0987597331404686,
        0.20362913608551025,
        0.010312957689166069,
        -0.05297398194670677,
        -0.14962135255336761,
        0.11816668510437012,
        -0.1475624144077301,
        -0.10203636437654495,
        -0.11972085386514664,
        0.09274150431156158,
        0.10206650197505951,
        -0.188363179564476,
        0.11364644020795822
      ],
      [
        -0.11965559422969818,
        -0.11377666145563126,
        0.057741932570934296,
        -0.15440809726715088,
        0.12124309688806534,
        -0.06237991899251938,
        0.09248233586549759,
        -0.08770673722028732,
        0.07767104357481003,
        -0.10594640672206879,
        0.020370380952954292,
        -0.014684965834021568,
        0.12140467017889023,
        -0.02408561296761036,
        -0.04796536639332771,
        0.18125909566879272
      ],
      [
        0.18844011425971985,
        0.22883674502372742,
        -0.1534685492515564,
        0.07122468203306198,
        -0.07213170826435089,
        -0.03609774261713028,
        -0.05577554181218147,
        -0.007543923333287239,
        0.006103268824517727,
        0.022191952913999557,
        -0.13974633812904358,
        -0.026738347485661507,
        0.17685192823410034,
        -0.08071929216384888,
        0.14157328009605408,
        -0.017350975424051285
      ],
      [
        -0.12212064862251282,
        -0.15615375339984894,
        0.1789681613445282,
        -0.10662968456745148,
        0.14366669952869415,
        -0.09014947712421417,
        -0.15322811901569366,
        -0.04275074601173401,
        -0.12150931358337402,
        0.1331137865781784,
        -0.1877412647008896,
        -0.1515185534954071,
        -0.19665217399597168,
        0.11374610662460327,
        -0.1690136045217514,
        -0.16523052752017975
      ],
      [
        -0.15953239798545837,
        -0.1004185825586319,
        -0.07366278767585754,
        -0.041644707322120667,
        -0.19135898351669312,
        0.2441834956407547,
        -0.2120812088251114,
        -0.04160378873348236,
        -0.13646237552165985,
        -0.052165593951940536,
        0.04818789288401604,
        0.2700425386428833,
        0.13234558701515198,
        0.09826575964689255,
        0.1285184919834137,
        -0.08772449195384979
      ],
      [
        0.14708003401756287,
        -0.16595862805843353,
        -0.04763095825910568,
        -0.07412057369947433,
        0.19619740545749664,
        -0.01747031882405281,
        -0.17955036461353302,
        0.07088922709226608,
        -0.030139781534671783,
        -0.13742119073867798,
        -0.19187511503696442,
        -0.000995070324279368,
        0.12045808881521225,
        -0.12756885588169098,
        0.053596463054418564,
        -0.19154679775238037
      ],
      [
        0.02893678843975067,
        0.16619490087032318,
        -0.17465868592262268,
        0.003566023660823703,
        0.14623740315437317,
        0.022831955924630165,
        -0.12299654632806778,
        -0.01257724966853857,
        -0.08447688072919846,
        0.18902410566806793,
        -0.019218290224671364,
        0.18244017660617828,
        0.1288681924343109,
        -0.07195952534675598,
        0.13767607510089874,
        0.14624373614788055
      ],
      [
        -0.012556111440062523,
        0.0909443125128746,
        0.011499037966132164,
        -0.18290090560913086,
        0.06087765842676163,
        -0.07298102229833603,
        0.1502780020236969,
        0.07102753221988678,
        -0.03291778638958931,
        0.10936859250068665,
        0.1980152726173401,
        -0.00822223350405693,
        -0.11203907430171967,
        0.18890582025051117,
        -0.0017622841987758875,
        -0.1500733345746994
      ],
      [
        0.08591610938310623,
        -0.10154485702514648,
        0.06834375113248825,
        0.24430133402347565,
        -0.05472102388739586,
        0.09841766208410263,
        -0.08324811607599258,
        -0.013577749952673912,
        0.17428438365459442,
        -0.005112723913043737,
        -0.16177821159362793,
        0.17089985311031342,
        -0.07011692970991135,
        0.07998978346586227,
        -0.042918264865875244,
        0.10026270896196365
      ],
      [
        0.09735117107629776,
        0.0022928903345018625,
        -0.03539670631289482,
        0.12791456282138824,
        0.17824703454971313,
        0.12115452438592911,
        0.21898336708545685,
        -0.1710512340068817,
        0.05219436064362526,
        0.20449954271316528,
        0.1462145447731018,
        -0.0030996857676655054,
        0.09851042181253433,
        0.09753572940826416,
        -0.0920405238866806,
        -0.0772278904914856
      ],
      [
        0.0018273699097335339,
        0.18977709114551544,
        -0.08050625026226044,
        0.011159509420394897,
        -0.08359242975711823,
        -0.054278455674648285,
        -0.1672152578830719,
        -0.06376338005065918,
        0.09076019376516342,
        0.19393078982830048,
        0.13901802897453308,
        0.19837310910224915,
        -0.016524391248822212,
        -0.10789144039154053,
        0.17771486937999725,
        0.10096659511327744
      ],
      [
        -0.08925840258598328,
        -0.1238672137260437,
        -0.0781630352139473,
        0.057911958545446396,
        0.06210607290267944,
        -0.11799652874469757,
        0.14074745774269104,
        0.1373279094696045,
        -0.018345195800065994,
        0.07906389981508255,
        -0.054345350712537766,
        0.07986543327569962,
        -0.08582513779401779,
        -0.07479167729616165,
        0.06216706335544586,
        0.11935905367136002
      ],
      [
        -0.054523784667253494,
        0.177232027053833,
        -0.0750773623585701,
        0.016520695760846138,
        0.02448570542037487,
        -0.19303904473781586,
        -0.14335843920707703,
        0.06640798598527908,
        -0.1427972912788391,
        0.08833608031272888,
        -0.06661105155944824,
        0.17644011974334717,
        -0.04972328618168831,
        -0.017882343381643295,
        -0.001634742016904056,
        -0.09006021171808243
      ],
      [
        0.20778974890708923,
        -0.1265316903591156,
        0.14436806738376617,
        0.05930846557021141,
        -0.09335309267044067,
        -0.16626393795013428,
        -0.1413147896528244,
        -0.03454278036952019,
        -0.10335573554039001,
        -0.03922254219651222,
        -0.11293062567710876,
        -0.21074312925338745,
        -0.07433231920003891,
        0.03646882623434067,
        0.07395979762077332,
        0.047042347490787506
      ],
      [
        -0.014192848466336727,
        -0.11388546973466873,
        -0.13739345967769623,
        0.1829143911600113,
        0.10011883825063705,
        -0.03999336436390877,
        -0.024970734491944313,
        0.1058792769908905,
        0.07459257543087006,
        0.09662721306085587,
        -0.20023727416992188,
        0.17176902294158936,
        -0.04092823341488838,
        0.19621285796165466,
        0.04296025261282921,
        -0.036752503365278244
      ],
      [
        0.039456021040678024,
        -0.10472466051578522,
        0.074945367872715,
        -0.03555554896593094,
        -0.08980222046375275,
        0.12685510516166687,
        0.20758484303951263,
        -0.03261283040046692,
        -0.09566788375377655,
        -0.1474260836839676,
        0.09480989724397659,
        0.12160425633192062,
        0.03973645344376564,
        0.12536567449569702,
        -0.05948851257562637,
        0.10897988826036453
      ],
      [
        0.10265741497278214,
        -0.1497417390346527,
        0.17916680872440338,
        -0.28068995475769043,
        0.027258191257715225,
        -0.1266084760427475,
        0.11450038850307465,
        0.10454119741916656,
        -0.048064012080430984,
        -0.1412578523159027,
        -0.13475832343101501,
        -0.06788609176874161,
        -0.15277163684368134,
        -0.11117438226938248,
        0.09894180297851562,
        0.12918169796466827
      ]
    ],
    "sequence_encoder.encoder.weight_hh_l0": [
      [
        0.12646320462226868,
        0.16761723160743713,
        -0.08959002792835236,
        0.20965491235256195,
        -0.13533373177051544,
        0.05859191343188286,
        -0.07997716218233109,
        0.0027568135410547256,
        0.040075577795505524,
        0.01873231679201126,
        0.16957281529903412,
        0.12448830157518387,
        -0.08680371940135956,
        0.023900989443063736,
        -0.022608404979109764,
        -0.021939963102340698,
        0.051287516951560974,
        0.17506442964076996,
        0.07653259485960007,
        0.26778459548950195,
        0.005551082082092762,
        -0.18616516888141632,
        -0.147210031747818,
        -0.047235485166311264,
        -0.0288395993411541,
        -0.10077054798603058,
        0.1200038343667984,
        0.12293616682291031,
        -0.01565755158662796,
        0.11458446085453033,
        0.0674932524561882,
        0.02756015583872795
      ],
      [
        -0.1757892221212387,
        0.09851109981536865,
        -0.28143563866615295,
        -0.2162533849477768,
        -0.13885709643363953,
        -0.24970102310180664,
        -0.1480952948331833,
        -0.03437225520610809,
        0.019258569926023483,
        0.2458304613828659,
        -0.13252964615821838,
        -0.03460724279284477,
        0.15351806581020355,
        0.2494448870420456,
        0.12201181054115295,
        0.006858123000711203,
        0.17371220886707306,
        0.07892405241727829,
        0.029536770656704903,
        -0.09417339414358139,
        0.1767038106918335,
        -0.051431622356176376,
        0.1738528460264206,
        -0.15095221996307373,
        0.08106623589992523,
        -0.12414412200450897,
        0.19626320898532867,
        -0.01669790968298912,
        -0.1559174507856369,
        0.12943248450756073,
        0.056323226541280746,
        0.15408384799957275
      ],
      [
        0.01348757091909647,
        -0.07917513698339462,
        0.27015039324760437,
        0.027041016146540642,
        -0.0404365211725235,
        0.060385119169950485,
        0.001818826305679977,
        0.08647089451551437,
        -0.15778982639312744,
        0.051288262009620667,
        0.14326037466526031,
        -0.007339457981288433,
        -0.12701986730098724,
        0.09941478818655014,
        0.2610560953617096,
        0.039476729929447174,
        0.011681577190756798,
        0.19617679715156555,
        -0.06783625483512878,
        0.23933514952659607,
        0.292886346578598,
        0.003934210631996393,
        0.1385674923658371,
        -0.02210763283073902,
        0.015804024413228035,
        -0.12793971598148346,
        -0.07629240304231644,
        0.179935485124588,
        0.23026354610919952,
        0.11959917098283768,
        0.09455327689647675,
        -0.0980948656797409
      ],
      [
        -0.22321489453315735,
        -0.18801617622375488,
        0.23179957270622253,
        -0.005075588822364807,
        0.08237386494874954,
        0.16521233320236206,
        -0.28018879890441895,
        0.14151997864246368,
        0.07399369031190872,
        0.16914986073970795,
        0.052307166159152985,
        0.05307118222117424,
        -0.07077179849147797,
        0.16046759486198425,
        0.017765646800398827,
        0.02894870564341545,
        -0.12004254758358002,
        0.24904221296310425,
        -0.19519205391407013,
        -0.016773119568824768,
        -0.0033840646501630545,
        0.11544452607631683,
        0.017519919201731682,
        -0.17494745552539825,
        -0.24509425461292267,
        0.2613174617290497,
        0.21058771014213562,
        0.1642589271068573,
        0.08159107714891434,
        0.2980619966983795,
        0.18922781944274902,
        -0.000339622056344524
      ],
      [
        -0.09825330227613449,
        -0.10262114554643631,
        0.02912916988134384,
        0.2081432342529297,
        0.0474463626742363,
        -0.10902012139558792,
        0.05587666854262352,
        0.027849193662405014,
        0.07302679866552353,
        0.02259417250752449,
        -0.003286966122686863,
        0.12013749778270721,
        0.10852596908807755,
        -0.07585003972053528,
        -0.008485434576869011,
        -0.25454312562942505,
        -0.04392274096608162,
        0.07099013030529022,
        -0.07759557664394379,
        0.03311523422598839,
        -0.05945369228720665,
        -0.13995571434497833,
        0.07796840369701385,
        0.20406433939933777,
        0.11221308261156082,
        -0.11940758675336838,
        0.0676642507314682,
        -0.03671415522694588,
        0.0640765130519867,
        -0.08200691640377045,
        0.012098530307412148,
        0.061331093311309814
      ],
      [
        -0.17215539515018463,
        0.18967092037200928,
        0.14189162850379944,
        0.1342165172100067,
        0.09166280925273895,
        0.13688714802265167,
        0.140175923705101,
        0.02535713091492653,
        0.06287436932325363,
        -0.12431938946247101,
        -0.02998652309179306,
        0.12446983903646469,
        0.061845965683460236,
        0.15518692135810852,
        -0.25668495893478394,
        0.05935432016849518,
        0.2200390100479126,
        0.023184748366475105,
        -0.11082529276609421,
        -0.07427295297384262,
        -0.24965080618858337,
        0.05200422182679176,
        0.0056443666107952595,
        -0.37006592750549316,
        0.009093806147575378,
        0.3083091080188751,
        -0.06428256630897522,
        0.24008122086524963,
        -0.06698362529277802,
        -0.04263775795698166,
        -0.03951851278543472,
        0.1634785681962967
      ],
      [
        0.008194427005946636,
        -0.0857684463262558,
        -0.07111043483018875,
        -0.11002464592456818,
        0.15039385855197906,
        -0.012422355823218822,
        0.03583940118551254,
        0.07799886167049408,
        0.154423788189888,
        0.0766143873333931,
        0.1184118464589119,
        0.050250325351953506,
        0.03418494388461113,
        -0.14251384139060974,
        0.022338492795825005,
        0.0320415273308754,
        0.04870019108057022,
        0.0019152264576405287,
        0.1183478981256485,
        0.1170499250292778,
        0.10513708740472794,
        0.10155996680259705,
        -0.0690665915608406,
        -0.12696798145771027,
        -0.18452197313308716,
        -0.0589880645275116,
        -0.11455195397138596,
        0.14609839022159576,
        0.20043040812015533,
        -0.03539956361055374,
        0.012627468444406986,
        0.11291634291410446
      ],
      [
        -0.1010056808590889,
        -0.02681763656437397,
        0.27490827441215515,
        -0.17578063905239105,
        -0.026886163279414177,
        -0.06488797068595886,
        -0.12703107297420502,
        0.11534388363361359,
        0.0925167053937912,
        0.2496660202741623,
        0.21839061379432678,
        -0.06167533993721008,
        0.1474379152059555,
        0.12993107736110687,
        -0.1377808302640915,
        -0.03604580834507942,
        -0.24524156749248505,
        0.21264766156673431,
        -0.22086817026138306,
        0.08754264563322067,
        0.253254771232605,
        0.13917379081249237,
        0.02336845174431801,
        0.06405474245548248,
        -0.1310821771621704,
        0.039708174765110016,
        -0.07090883702039719,
        0.02620137482881546,
        0.017834259197115898,
        0.07426465302705765,
        -0.11680719256401062,
        -0.1261734664440155
      ],
      [
        -0.075087770819664,
        0.009033172391355038,
        0.05479760840535164,
        0.15530511736869812,
        -0.1027110368013382,
        -0.0979568287730217,
        0.06077415868639946,
        0.07296296954154968,
        0.036420974880456924,
        0.2690599262714386,
        0.17579828202724457,
        0.048956625163555145,
        -0.04386179894208908,
        0.18197685480117798,
        -0.06860597431659698,
        -0.08909872174263,
        0.05696602910757065,
        0.01641610451042652,
        -0.25897926092147827,
        0.018468426540493965,
        0.24493898451328278,
        0.07104488462209702,
        0.06357602775096893,
        0.16883672773838043,
        0.06779555976390839,
        0.14661163091659546,
        -0.029172491282224655,
        0.08991152048110962,
        0.2907369136810303,
        0.13405638933181763,
        -0.02167816460132599,
        -0.1847229152917862
      ],
      [
        -0.23085032403469086,
        0.04376565292477608,
        0.18834057450294495,
        -0.13955624401569366,
        0.22403526306152344,
        -0.13153408467769623,
        -0.19633597135543823,
        -0.24993081390857697,
        -0.21328648924827576,
        0.20427699387073517,
        0.1109536737203598,
        0.07887054234743118,
        0.12912733852863312,
        -0.0657583475112915,
        0.034098539501428604,
        -0.13085590302944183,
        -0.12199018150568008,
        -0.016257984563708305,
        0.016072575002908707,
        0.10437975078821182,
        0.11169327050447464,
        0.06218333914875984,
        -0.14497339725494385,
        -0.0009952636901289225,
        -0.1591414511203766,
        -0.15355515480041504,
        -0.14765866100788116,
        0.051529742777347565,
        0.25251132249832153,
        0.23437252640724182,
        0.02065388299524784,
        0.11912895739078522
      ],
      [
        -0.060443978756666183,
        -0.2859254777431488,
        0.031713105738162994,
        0.0766584500670433,
        0.15834665298461914,
        -0.05939251556992531,
        0.07033199816942215,
        0.13947057723999023,
        -0.1995028406381607,
        0.10279645025730133,
        -0.15158161520957947,
        0.05778932198882103,
        -0.06990893930196762,
        -0.0661458820104599,
        0.13817265629768372,
        0.019344408065080643,
        -0.027446186169981956,
        -0.019587991759181023,
        0.06873773038387299,
        0.26904359459877014,
        0.15253162384033203,
        -0.010889599099755287,
        -0.02570001222193241,
        0.1998477429151535,
        0.016482727602124214,
        -0.04520595818758011,
        -0.17588655650615692,
        0.15398360788822174,
        0.15942320227622986,
        0.044027503579854965,
        0.020042920485138893,
        0.0035102081019431353
      ],
      [
        0.10287558287382126,
        -0.012341753579676151,
        -0.15184025466442108,
        0.09420157223939896,
        -0.08546754717826843,
        -0.0646217092871666,
        -0.21545957028865814,
        -0.16812333464622498,
        0.08510144799947739,
        0.21445105969905853,
        0.2595537602901459,
        0.05820903182029724,
        0.18384374678134918,
        0.06427322328090668,
        0.04256521537899971,
        0.041954077780246735,
        -0.21686303615570068,
        0.013827425427734852,
        0.015301081351935863,
        0.03918752819299698,
        0.1110348328948021,
        0.0683390349149704,
        0.17700272798538208,
        0.058797404170036316,
        -0.1360727846622467,
        0.01742486283183098,
        0.12942375242710114,
        0.11588912457227707,
        0.08171525597572327,
        0.2017870396375656,
        -0.06825681775808334,
        0.01842583529651165
      ],
      [
        0.02297271229326725,
        0.06046470254659653,
        0.15681353211402893,
        -0.01021750271320343,
        -0.008292934857308865,
        0.13036352396011353,
        -0.020538443699479103,
        -0.027341719716787338,
        0.16793730854988098,
        -0.04898688197135925,
        -0.11847659200429916,
        -0.14255426824092865,
        0.05899173021316528,
        -0.0913827121257782,
        0.01590488851070404,
        -0.17265088856220245,
        0.11600232869386673,
        -0.06323962658643723,
        -0.16319380700588226,
        0.025346942245960236,
        -0.02299410291016102,
        0.14653454720973969,
        0.09765607863664627,
        -0.028087817132472992,
        0.014900967478752136,
        -0.03676968067884445,
        -0.036206625401973724,
        -0.042768143117427826,
        0.007731733378022909,
        0.021140003576874733,
        -0.0012093782424926758,
        0.0796445682644844
      ],
      [
        -0.02622372657060623,
        -0.004436166491359472,
        -0.17947688698768616,
        0.13765843212604523,
        -0.15476055443286896,
        -0.15881498157978058,
        -0.07274258881807327,
        0.15730305016040802,
        0.11531861126422882,
        0.12663634121418,
        0.022573091089725494,
        -0.14716902375221252,
        0.2012563794851303,
        0.23397642374038696,
        -0.11300469934940338,
        -0.09961256384849548,
        0.018220141530036926,
        -0.09804745763540268,
        -0.16705788671970367,
        -0.13496306538581848,
        -0.11304385215044022,
        0.04205639287829399,
        -0.05929763242602348,
        0.05893900617957115,
        -0.16496790945529938,
        0.11971515417098999,
        0.16214042901992798,
        -0.06063193827867508,
        0.12345971167087555,
        -0.09857111424207687,
        0.1744483858346939,
        -0.09224984049797058
      ],
      [
        0.08463812619447708,
        -0.24111288785934448,
        0.21964812278747559,
        -0.027887554839253426,
        0.02797548845410347,
        0.0027796823997050524,
        -0.05588982254266739,
        -0.016659142449498177,
        -0.08482581377029419,
        -0.07168978452682495,
        0.05604510009288788,
        0.062419258058071136,
        -0.0663197711110115,
        -0.06505951285362244,
        0.06400784105062485,
        -0.09194854646921158,
        -0.03943413496017456,
        -0.06692656874656677,
        0.03975412994623184,
        0.2290424406528473,
        -0.11700331419706345,
        0.022716403007507324,
        0.12518787384033203,
        0.047790054231882095,
        -0.0805642232298851,
        0.1989191174507141,
        0.07420805841684341,
        -0.07484171539545059,
        0.13908307254314423,
        0.20300590991973877,
        -0.13012506067752838,
        -0.2353326380252838
      ],
      [
        -0.18227599561214447,
        -0.2343049943447113,
        0.062106162309646606,
        -0.058418240398168564,
        -0.14955799281597137,
        0.052475932985544205,
        -0.050362322479486465,
        -0.012262962758541107,
        0.08655921369791031,
        0.06525108963251114,
        -0.12902377545833588,
        -0.1848515421152115,
        0.1606055498123169,
        0.05384945869445801,
        -0.103404700756073,
        -0.2352793663740158,
        0.031876564025878906,
        0.008309985511004925,
        -0.08617044985294342,
        0.07481979578733444,
        0.12239550799131393,
        0.23874792456626892,
        0.18120120465755463,
        -0.08675271272659302,
        -0.17261333763599396,
        0.0866663008928299,
        -0.013976920396089554,
        -0.05869172513484955,
        0.16954796016216278,
        0.007118791341781616,
        -0.05487914755940437,
        -0.11133715510368347
      ],
      [
        -0.04904031381011009,
        0.059944361448287964,
        -0.07643300294876099,
        0.05020647868514061,
        0.04412652924656868,
        0.048800572752952576,
        -0.05905536934733391,
        0.11025149375200272,
        0.01824944093823433,
        -0.10518158972263336,
        0.19959570467472076,
        -0.047953490167856216,
        -0.11131015419960022,
        0.18081463873386383,
        -0.047536738216876984,
        0.050773680210113525,
        -0.13589145243167877,
        0.07968104630708694,
        0.09867186099290848,
        0.15807966887950897,
        0.1235269233584404,
        0.1204034686088562,
        0.12165088951587677,
        -0.12830176949501038,
        -0.09445738047361374,
        0.0936918631196022,
        -0.10492195934057236,
        -0.03154359757900238,
        -0.19960452616214752,
        -0.018882757052779198,
        0.13328421115875244,
        -0.053133852779865265
      ],
      [
        -0.13302266597747803,
        -0.0715961754322052,
        0.09490283578634262,
        -0.0020004191901534796,
        0.0700143426656723,
        0.14589093625545502,
        -0.06268134713172913,
        0.09863174706697464,
        -0.08737847208976746,
        0.21758867800235748,
        0.10817016661167145,
        -0.08973091840744019,
        0.06755532324314117,
        0.1330639272928238,
        -0.009455058723688126,
        0.031086403876543045,
        -0.12336638569831848,
        -0.008457831107079983,
        -0.3319101929664612,
        0.10361701995134354,
        0.19592514634132385,
        0.2403275966644287,
        -0.036500535905361176,
        0.11586860567331314,
        -0.329876184463501,
        -0.05127997323870659,
        0.1514054536819458,
        0.0654032900929451,
        0.1797272264957428,
        0.05186964198946953,
        -0.11137041449546814,
        -0.13076819479465485
      ],
      [
        -0.15368494391441345,
        -0.09193143993616104,
        -0.047183603048324585,
        -0.07665976136922836,
        0.09887072443962097,
        -0.0055818110704422,
        -0.1598377227783203,
        -0.07080971449613571,
        -0.13781850039958954,
        0.05632088705897331,
        0.2399328351020813,
        0.190517395734787,
        0.1659543514251709,
        0.22177600860595703,
        0.10649019479751587,
        -0.2924298644065857,
        -0.16478662192821503,
        0.07477427273988724,
        0.002916110912337899,
        0.03678770363330841,
        0.22982339560985565,
        -0.09122321754693985,
        -0.02228131704032421,
        0.13242103159427643,
        -0.2171701192855835,
        0.12631124258041382,
        -0.11134783923625946,
        -0.06727584451436996,
        0.1872890144586563,
        0.07014112174510956,
        0.022313933819532394,
        -0.19367271661758423
      ],
      [
        -0.23149462044239044,
        -0.11468923836946487,
        0.3565412759780884,
        0.07889004796743393,
        -0.14923939108848572,
        0.08567581325769424,
        -0.10751796513795853,
        -0.11577774584293365,
        -0.3542235791683197,
        0.05308249592781067,
        0.2444356083869934,
        -0.08727563917636871,
        -0.04431791231036186,
        0.0019284079317003489,
        0.1808321624994278,
        -0.031223097816109657,
        -0.07800694555044174,
        0.3218849301338196,
        -0.08699953556060791,
        0.07779157161712646,
        0.24502217769622803,
        0.34784483909606934,
        -0.28798428177833557,
        -0.03504146263003349,
        -0.1615731567144394,
        0.07322140783071518,
        -0.32335516810417175,
        0.13388946652412415,
        0.056644778698682785,
        0.2170640230178833,
        0.02056594006717205,
        -0.07028786838054657
      ],
      [
        0.08435098081827164,
        -0.09120700508356094,
        0.08922818303108215,
        0.03930198773741722,
        0.050992369651794434,
        0.16290535032749176,
        -0.11037018150091171,
        0.042880065739154816,
        -0.17802266776561737,
        0.18201954662799835,
        0.16214606165885925,
        0.11073411256074905,
        -0.04556707665324211,
        0.13074573874473572,
        0.2557600140571594,
        -0.014532309025526047,
        -0.09510768949985504,
        0.005579983349889517,
        -0.17888563871383667,
        0.022173509001731873,
        0.029264697805047035,
        0.06849738210439682,
        0.03617708012461662,
        0.21158289909362793,
        -0.12119319289922714,
        -0.001381568261422217,
        -0.15536284446716309,
        -0.065692238509655,
        -0.023864230141043663,
        0.20679990947246552,
        -0.021353865042328835,
        0.048659078776836395
      ],
      [
        -0.234341099858284,
        0.023496439680457115,
        0.017239296808838844,
        0.09172885119915009,
        -0.06421468406915665,
        -0.12669864296913147,
        -0.13613076508045197,
        0.25360751152038574,
        -0.09880796819925308,
        0.07662171125411987,
        0.2308504432439804,
        0.19471915066242218,
        0.09950024634599686,
        0.2841200828552246,
        0.14073766767978668,
        -0.18820175528526306,
        -0.0692647248506546,
        0.09078220278024673,
        0.04261323809623718,
        0.16051000356674194,
        0.0469435416162014,
        -0.013115517795085907,
        0.10078694671392441,
        -0.007076011970639229,
        -0.1690215766429901,
        0.14489682018756866,
        -0.0720142126083374,
        0.19044405221939087,
        0.17733027040958405,
        -0.006915380246937275,
        0.05876393988728523,
        0.17414550483226776
      ],
      [
        0.0002504817093722522,
        0.18146803975105286,
        -0.01252477616071701,
        -0.08905306458473206,
        -0.015457113273441792,
        -0.08358617126941681,
        0.13782210648059845,
        -0.1920236200094223,
        -0.038002777844667435,
        -0.001694606151431799,
        0.04055453836917877,
        0.03448973968625069,
        0.010228661820292473,
        -0.12928104400634766,
        -0.20146916806697845,
        0.06646432727575302,
        0.10700730234384537,
        0.014758048579096794,
        0.04673861339688301,
        -0.13149787485599518,
        0.010236923582851887,
        0.2023731768131256,
        -0.03724120184779167,
        -0.009990518912672997,
        0.19831444323062897,
        -0.036762919276952744,
        -0.03288695961236954,
        -0.044927556067705154,
        -0.15805791318416595,
        0.11191795766353607,
        -0.12638060748577118,
        0.03321876749396324
      ],
      [
        0.1042611375451088,
        -0.30142730474472046,
        0.04449700191617012,
        0.12312926352024078,
        -0.02969730831682682,
        0.022906146943569183,
        -0.20273469388484955,
        -0.09413011372089386,
        -0.15630340576171875,
        0.13112975656986237,
        -0.1250683218240738,
        -0.14332060515880585,
        0.007089120335876942,
        -0.08325888961553574,
        -0.029200848191976547,
        -0.05857162922620773,
        -0.0633162409067154,
        0.17185348272323608,
        0.00973160658031702,
        0.3239624500274658,
        -0.19117671251296997,
        0.36413654685020447,
        -0.20703978836536407,
        0.049780964851379395,
        -0.30666783452033997,
        0.05835294350981712,
        0.11001687496900558,
        0.292079895734787,
        0.1456727385520935,
        0.17472533881664276,
        -0.03580595552921295,
        -0.3136153519153595
      ],
      [
        -0.18157285451889038,
        -0.14317338168621063,
        0.023066019639372826,
        0.030466144904494286,
        0.0798930823802948,
        0.03183634951710701,
        -0.08723565936088562,
        0.040643006563186646,
        -0.06907407939434052,
        0.23540431261062622,
        0.11392874270677567,
        -0.00894324854016304,
        -0.08462946861982346,
        -0.030998595058918,
        -0.09661105275154114,
        -0.03786056488752365,
        -0.010104568675160408,
        0.14084763824939728,
        0.11118751764297485,
        -0.1720268279314041,
        -0.07688809931278229,
        0.13213910162448883,
        0.0821925550699234,
        0.03267767280340195,
        -0.20142072439193726,
        -0.07521649450063705,
        0.13432563841342926,
        0.17152218520641327,
        -0.1500977873802185,
        0.11618322134017944,
        -0.12457848340272903,
        -0.05665504187345505
      ],
      [
        -0.1333197057247162,
        -0.02490171231329441,
        -0.20731769502162933,
        -0.170728400349617,
        -0.07343660295009613,
        0.08587998151779175,
        -0.21302926540374756,
        0.06649713218212128,
        -0.026379309594631195,
        0.06889346987009048,
        0.14214742183685303,
        -0.12371118366718292,
        0.11642206460237503,
        0.29111337661743164,
        -0.03554803505539894,
        0.07394607365131378,
        -0.09232833236455917,
        0.14446815848350525,
        0.04770814627408981,
        -0.14057360589504242,
        0.16421426832675934,
        0.005373560823500156,
        0.1949264258146286,
        0.009433160535991192,
        -0.12971805036067963,
        0.2028070092201233,
        0.05645832419395447,
        0.2163061797618866,
        -0.10434859246015549,
        0.053960684686899185,
        0.010578850284218788,
        -0.04004858434200287
      ],
      [
        0.09118884056806564,
        -0.22534571588039398,
        -0.06726354360580444,
        -0.1962544173002243,
        0.06149359419941902,
        -0.026135092601180077,
        -0.16284385323524475,
        0.18481507897377014,
        0.19813090562820435,
        0.13212944567203522,
        -0.05246669799089432,
        -0.10513131320476532,
        -0.02149304188787937,
        -0.0804087296128273,
        -0.07896000146865845,
        -0.04952413961291313,
        -0.1396767646074295,
        0.1305902600288391,
        -0.23074080049991608,
        -0.22813552618026733,
        -0.05513220280408859,
        0.04057100787758827,
        0.15848051011562347,
        0.02539675123989582,
        -0.0661463811993599,
        0.1645468920469284,
        0.15633662045001984,
        -0.1163567304611206,
        -0.15449635684490204,
        0.03604494407773018,
        0.08112247288227081,
        0.004397616721689701
      ],
      [
        -0.1762157380580902,
        -0.08427827805280685,
        0.0949556827545166,
        0.07801727950572968,
        0.11160700023174286,
        0.028144024312496185,
        -0.04231851547956467,
        0.2866819202899933,
        -0.10212583094835281,
        -0.05839454382658005,
        0.08643818646669388,
        0.01641472801566124,
        -0.0846443772315979,
        -0.0818265825510025,
        0.117603600025177,
        -0.1021052673459053,
        -0.11661311239004135,
        -0.12858010828495026,
        -0.1409083753824234,
        0.29201942682266235,
        0.15627874433994293,
        -0.0024726553820073605,
        -0.17064633965492249,
        -0.03590739145874977,
        -0.05407726392149925,
        0.10421387851238251,
        -0.06342582404613495,
        -0.0015781852416694164,
        -0.004685687366873026,
        0.20054566860198975,
        0.07940167933702469,
        0.198714941740036
      ],
      [
        -0.1550244837999344,
        -0.1926664412021637,
        0.31706318259239197,
        0.16283604502677917,
        0.007020089775323868,
        0.20508788526058197,
        -0.21132029592990875,
        -0.003896979382261634,
        0.12082120776176453,
        0.012644159607589245,
        0.15793290734291077,
        -0.2350148856639862,
        -0.2079172283411026,
        0.15046752989292145,
        -0.04148588329553604,
        -0.0775337815284729,
        0.09511301666498184,
        0.25684234499931335,
        -0.21493227779865265,
        0.3148496448993683,
        0.1048840582370758,
        0.36750271916389465,
        -0.288992315530777,
        -0.09347963333129883,
        0.021006442606449127,
        0.1495559960603714,
        -0.018168656155467033,
        0.19780263304710388,
        0.0374419204890728,
        0.011859041638672352,
        0.13130618631839752,
        -0.21267348527908325
      ],
      [
        0.14059296250343323,
        -0.2968437373638153,
        -0.0012355952057987452,
        0.06594162434339523,
        0.078095942735672,
        -0.11060334742069244,
        -0.019810311496257782,
        -0.06757992506027222,
        0.12758873403072357,
        0.013911327347159386,
        0.04642084613442421,
        -0.06090659648180008,
        -0.15813809633255005,
        0.08376064151525497,
        -0.1445024460554123,
        -0.08323189616203308,
        -0.20945599675178528,
        0.08841191977262497,
        0.0940726175904274,
        0.24531731009483337,
        -0.04274475574493408,
        0.1314661204814911,
        -0.19525980949401855,
        0.011259540915489197,
        0.02539784647524357,
        -0.10121726989746094,
        -0.06267111003398895,
        0.06334629654884338,
        -0.007965891622006893,
        -0.001244637998752296,
        0.061827097088098526,
        -0.2032167762517929
      ],
      [
        -0.04012491554021835,
        -0.11130771040916443,
        0.023130157962441444,
        -0.011813487857580185,
        0.07055402547121048,
        -0.023485971614718437,
        0.0025051881093531847,
        -0.1964467614889145,
        -0.1835440844297409,
        0.05182284861803055,
        0.060068413615226746,
        0.09724839776754379,
        -0.01706002652645111,
        -0.010891962796449661,
        -0.024894466623663902,
        0.045741885900497437,
        0.011521161533892155,
        0.11867846548557281,
        0.07408618927001953,
        0.05952282249927521,
        0.2367362529039383,
        -0.0931488648056984,
        0.03866565600037575,
        -0.0989709198474884,
        0.11621297895908356,
        -0.035359784960746765,
        -0.07915529608726501,
        0.06420042365789413,
        0.054612141102552414,
        0.18048036098480225,
        0.18204882740974426,
        -0.0713079571723938
      ],
      [
        0.012840061448514462,
        -0.04414492845535278,
        0.0684846043586731,
        0.12254451215267181,
        -0.01548786275088787,
        0.04796818271279335,
        0.0021703082602471113,
        -0.12102173268795013,
        -0.12232787162065506,
        0.30813226103782654,
        0.1434684693813324,
        -0.18854837119579315,
        0.04727550968527794,
        -0.06077926605939865,
        -0.07553502917289734,
        -0.0503997765481472,
        -0.06757558137178421,
        0.2876511216163635,
        -0.046167101711034775,
        0.012824737466871738,
        0.0980406105518341,
        0.2134937345981598,
        -0.18420809507369995,
        -0.07678502053022385,
        -0.009377638809382915,
        0.009900868870317936,
        0.019236596301198006,
        0.09560392796993256,
        -0.06331812590360641,
        -0.01542313676327467,
        -0.10477103292942047,
        -0.28695255517959595
      ],
      [
        0.06276630610227585,
        -0.13801781833171844,
        0.15746556222438812,
        -0.045217983424663544,
        -0.09738217294216156,
        0.004175007808953524,
        0.14793147146701813,
        0.023434918373823166,
        0.16989171504974365,
        0.21006104350090027,
        0.07123484462499619,
        -0.04320576414465904,
        -0.12156727910041809,
        0.0005870502209290862,
        0.00974067859351635,
        0.16650770604610443,
        0.04236181080341339,
        0.1317858248949051,
        -0.16590963304042816,
        -0.15353505313396454,
        -0.0014494213974103332,
        0.22311080992221832,
        0.13953600823879242,
        -0.2513447403907776,
        0.029644832015037537,
        0.1488407403230667,
        0.07999034970998764,
        -0.08265996724367142,
        -0.039545267820358276,
        -0.23179776966571808,
        -0.10956306755542755,
        0.04735599085688591
      ],
      [
        -0.14179348945617676,
        -0.18161310255527496,
        0.2164904922246933,
        0.001974198967218399,
        0.17313043773174286,
        0.1931961625814438,
        -0.15013350546360016,
        0.11426575481891632,
        0.17218017578125,
        -0.20435602962970734,
        0.03526751324534416,
        -0.10619249194860458,
        0.016088996082544327,
        0.07432132959365845,
        -0.12989217042922974,
        -0.16801778972148895,
        0.03115331381559372,
        0.04332788661122322,
        0.16450656950473785,
        0.2511272430419922,
        0.0860370323061943,
        0.050408586859703064,
        0.001153189456090331,
        -0.01722819171845913,
        -0.15418016910552979,
        0.18216794729232788,
        0.13615480065345764,
        0.20210197567939758,
        0.1841387003660202,
        0.03128531575202942,
        0.06553760170936584,
        -0.031502291560173035
      ],
      [
        -0.011796535924077034,
        0.1239827498793602,
        -0.20328892767429352,
        -0.049278948456048965,
        0.025359276682138443,
        -0.1882636398077011,
        -0.1387733668088913,
        -0.10628898441791534,
        -0.22730720043182373,
        -0.0842752754688263,
        -0.03912338614463806,
        -0.021320093423128128,
        0.040858931839466095,
        -0.015001765452325344,
        0.23554739356040955,
        0.024305537343025208,
        0.09802661091089249,
        0.11888044327497482,
        -0.24481050670146942,
        -0.22088588774204254,
        0.20029696822166443,
        0.11227311939001083,
        0.09732090681791306,
        0.052990980446338654,
        0.17913830280303955,
        0.055670805275440216,
        -0.05519784986972809,
        -0.09921836853027344,
        0.09824974834918976,
        0.12067290395498276,
        0.25628456473350525,
        0.02769467793405056
      ],
      [
        -0.02765900269150734,
        -0.20974606275558472,
        0.17734110355377197,
        0.1376810371875763,
        0.09608182311058044,
        0.1549873650074005,
        0.1493859738111496,
        0.19253450632095337,
        0.08520571887493134,
        -0.1160314604640007,
        -0.3382664620876312,
        -0.1574917733669281,
        -0.09333080798387527,
        0.0872928574681282,
        -0.12966912984848022,
        -0.17517149448394775,
        -0.18180811405181885,
        0.08292200416326523,
        0.09902264922857285,
        0.22634357213974,
        -0.1408328413963318,
        0.02484404295682907,
        0.2260628640651703,
        0.11215358227491379,
        0.14859609305858612,
        0.18827779591083527,
        0.24749259650707245,
        0.16378043591976166,
        -0.1038467064499855,
        -0.11640997231006622,
        0.09177520871162415,
        -0.07940452545881271
      ],
      [
        -0.01561675127595663,
        -0.05255427211523056,
        0.10139796137809753,
        -0.04169897735118866,
        0.09864594042301178,
        0.030552402138710022,
        -0.01148140151053667,
        0.07295266538858414,
        -0.10683558881282806,
        -0.2097986787557602,
        -0.03517672047019005,
        0.30512863397598267,
        0.1412968784570694,
        0.14652329683303833,
        0.19021514058113098,
        0.18794585764408112,
        0.12331449240446091,
        -0.00666562607511878,
        -0.10907018929719925,
        -0.0656479001045227,
        -0.07639653235673904,
        -0.15865552425384521,
        0.11579140275716782,
        0.1808624416589737,
        0.09896761924028397,
        -0.19201631844043732,
        0.19992326200008392,
        0.03960966318845749,
        -0.13025681674480438,
        0.1608327031135559,
        -0.0020913956686854362,
        0.057558584958314896
      ],
      [
        0.030871929600834846,
        0.045706022530794144,
        -0.17863668501377106,
        0.11792653799057007,
        0.007423474453389645,
        -0.0928916484117508,
        0.03684143349528313,
